{"learner":{"attributes":{"scikit_learn":"{\"_estimator_type\": \"regressor\"}"},"feature_names":[],"feature_types":[],"gradient_booster":{"model":{"cats":{"enc":[],"feature_segments":[],"sorted_idx":[]},"gbtree_model_param":{"num_parallel_tree":"1","num_trees":"800"},"iteration_indptr":[0,1,2,3,4,5,6,7,8,9,10,11,12,13,14,15,16,17,18,19,20,21,22,23,24,25,26,27,28,29,30,31,32,33,34,35,36,37,38,39,40,41,42,43,44,45,46,47,48,49,50,51,52,53,54,55,56,57,58,59,60,61,62,63,64,65,66,67,68,69,70,71,72,73,74,75,76,77,78,79,80,81,82,83,84,85,86,87,88,89,90,91,92,93,94,95,96,97,98,99,100,101,102,103,104,105,106,107,108,109,110,111,112,113,114,115,116,117,118,119,120,121,122,123,124,125,126,127,128,129,130,131,132,133,134,135,136,137,138,139,140,141,142,143,144,145,146,147,148,149,150,151,152,153,154,155,156,157,158,159,160,161,162,163,164,165,166,167,168,169,170,171,172,173,174,175,176,177,178,179,180,181,182,183,184,185,186,187,188,189,190,191,192,193,194,195,196,197,198,199,200,201,202,203,204,205,206,207,208,209,210,211,212,213,214,215,216,217,218,219,220,221,222,223,224,225,226,227,228,229,230,231,232,233,234,235,236,237,238,239,240,241,242,243,244,245,246,247,248,249,250,251,252,253,254,255,256,257,258,259,260,261,262,263,264,265,266,267,268,269,270,271,272,273,274,275,276,277,278,279,280,281,282,283,284,285,286,287,288,289,290,291,292,293,294,295,296,297,298,299,300,301,302,303,304,305,306,307,308,309,310,311,312,313,314,315,316,317,318,319,320,321,322,323,324,325,326,327,328,329,330,331,332,333,334,335,336,337,338,339,340,341,342,343,344,345,346,347,348,349,350,351,352,353,354,355,356,357,358,359,360,361,362,363,364,365,366,367,368,369,370,371,372,373,374,375,376,377,378,379,380,381,382,383,384,385,386,387,388,389,390,391,392,393,394,395,396,397,398,399,400,401,402,403,404,405,406,407,408,409,410,411,412,413,414,415,416,417,418,419,420,421,422,423,424,425,426,427,428,429,430,431,432,433,434,435,436,437,438,439,440,441,442,443,444,445,446,447,448,449,450,451,452,453,454,455,456,457,458,459,460,461,462,463,464,465,466,467,468,469,470,471,472,473,474,475,476,477,478,479,480,481,482,483,484,485,486,487,488,489,490,491,492,493,494,495,496,497,498,499,500,501,502,503,504,505,506,507,508,509,510,511,512,513,514,515,516,517,518,519,520,521,522,523,524,525,526,527,528,529,530,531,532,533,534,535,536,537,538,539,540,541,542,543,544,545,546,547,548,549,550,551,552,553,554,555,556,557,558,559,560,561,562,563,564,565,566,567,568,569,570,571,572,573,574,575,576,577,578,579,580,581,582,583,584,585,586,587,588,589,590,591,592,593,594,595,596,597,598,599,600,601,602,603,604,605,606,607,608,609,610,611,612,613,614,615,616,617,618,619,620,621,622,623,624,625,626,627,628,629,630,631,632,633,634,635,636,637,638,639,640,641,642,643,644,645,646,647,648,649,650,651,652,653,654,655,656,657,658,659,660,661,662,663,664,665,666,667,668,669,670,671,672,673,674,675,676,677,678,679,680,681,682,683,684,685,686,687,688,689,690,691,692,693,694,695,696,697,698,699,700,701,702,703,704,705,706,707,708,709,710,711,712,713,714,715,716,717,718,719,720,721,722,723,724,725,726,727,728,729,730,731,732,733,734,735,736,737,738,739,740,741,742,743,744,745,746,747,748,749,750,751,752,753,754,755,756,757,758,759,760,761,762,763,764,765,766,767,768,769,770,771,772,773,774,775,776,777,778,779,780,781,782,783,784,785,786,787,788,789,790,791,792,793,794,795,796,797,798,799,800],"tree_info":[0,0,0,0,0,0,0,0,0,0,0,0,0,0,0,0,0,0,0,0,0,0,0,0,0,0,0,0,0,0,0,0,0,0,0,0,0,0,0,0,0,0,0,0,0,0,0,0,0,0,0,0,0,0,0,0,0,0,0,0,0,0,0,0,0,0,0,0,0,0,0,0,0,0,0,0,0,0,0,0,0,0,0,0,0,0,0,0,0,0,0,0,0,0,0,0,0,0,0,0,0,0,0,0,0,0,0,0,0,0,0,0,0,0,0,0,0,0,0,0,0,0,0,0,0,0,0,0,0,0,0,0,0,0,0,0,0,0,0,0,0,0,0,0,0,0,0,0,0,0,0,0,0,0,0,0,0,0,0,0,0,0,0,0,0,0,0,0,0,0,0,0,0,0,0,0,0,0,0,0,0,0,0,0,0,0,0,0,0,0,0,0,0,0,0,0,0,0,0,0,0,0,0,0,0,0,0,0,0,0,0,0,0,0,0,0,0,0,0,0,0,0,0,0,0,0,0,0,0,0,0,0,0,0,0,0,0,0,0,0,0,0,0,0,0,0,0,0,0,0,0,0,0,0,0,0,0,0,0,0,0,0,0,0,0,0,0,0,0,0,0,0,0,0,0,0,0,0,0,0,0,0,0,0,0,0,0,0,0,0,0,0,0,0,0,0,0,0,0,0,0,0,0,0,0,0,0,0,0,0,0,0,0,0,0,0,0,0,0,0,0,0,0,0,0,0,0,0,0,0,0,0,0,0,0,0,0,0,0,0,0,0,0,0,0,0,0,0,0,0,0,0,0,0,0,0,0,0,0,0,0,0,0,0,0,0,0,0,0,0,0,0,0,0,0,0,0,0,0,0,0,0,0,0,0,0,0,0,0,0,0,0,0,0,0,0,0,0,0,0,0,0,0,0,0,0,0,0,0,0,0,0,0,0,0,0,0,0,0,0,0,0,0,0,0,0,0,0,0,0,0,0,0,0,0,0,0,0,0,0,0,0,0,0,0,0,0,0,0,0,0,0,0,0,0,0,0,0,0,0,0,0,0,0,0,0,0,0,0,0,0,0,0,0,0,0,0,0,0,0,0,0,0,0,0,0,0,0,0,0,0,0,0,0,0,0,0,0,0,0,0,0,0,0,0,0,0,0,0,0,0,0,0,0,0,0,0,0,0,0,0,0,0,0,0,0,0,0,0,0,0,0,0,0,0,0,0,0,0,0,0,0,0,0,0,0,0,0,0,0,0,0,0,0,0,0,0,0,0,0,0,0,0,0,0,0,0,0,0,0,0,0,0,0,0,0,0,0,0,0,0,0,0,0,0,0,0,0,0,0,0,0,0,0,0,0,0,0,0,0,0,0,0,0,0,0,0,0,0,0,0,0,0,0,0,0,0,0,0,0,0,0,0,0,0,0,0,0,0,0,0,0,0,0,0,0,0,0,0,0,0,0,0,0,0,0,0,0,0,0,0,0,0,0,0,0,0,0,0,0,0,0,0,0,0,0,0,0,0,0,0,0,0,0,0,0,0,0,0,0,0,0,0,0,0,0,0,0,0,0,0,0,0,0,0,0,0,0,0,0,0,0,0,0,0,0,0,0,0,0,0,0,0,0,0,0,0,0,0,0,0,0,0,0,0,0,0,0,0,0,0,0,0,0,0,0,0,0,0,0,0,0,0,0,0,0,0,0,0,0,0,0,0,0,0,0,0,0,0,0,0,0,0,0,0,0,0,0,0,0,0,0,0,0,0,0,0,0,0,0,0,0,0,0,0,0,0,0,0,0,0,0,0,0,0,0,0,0,0,0],"trees":[{"base_weights":[3.096135E1,-4.045254E2,4.1348016E2,-5.8421643E2,-8.854694E1,3.9609152E2,3.5697446E2,-1.0054429E3,-5.222629E2,1.4700276E3,-2.6235345E2,4.041122E3,3.157953E2,-1.1094208E3,3.326808E1,7.784674E2,-5.6718823E2,2.804649E3,7.2974274E2,-8.0529926E2,-7.698204E1,8.719059E2,2.5076979E2,1.2163289E2,9.181772E2,-3.918477E1,-5.656548E2,7.148902E1,-1.5352722E2,-2.6394385E2,-7.011137E2,3.7385812E2,1.8791718E2,-7.76565E2,2.692625E3,-9.6436945E2,-5.397583E1,7.825729E1,-1.57585E2,-3.5106573E0,3.721667E1,-1.623923E2,3.225097E2,5.633349E2,2.5045427E3,-3.28981E-1,-3.3544506E1,2.2214062E1,-2.3569271E1,-1.0819209E1,3.1376966E1,-2.2039293E1,-6.13626E0,2.7202044E1,-1.8371578E1,-3.0886112E1,-2.8826964E0,9.878463E1,3.5846622E1,-3.2900536E1,-1.689551E1,4.8630665E1,-3.1445383E1,1.3249805E1,-8.886096E0,1.2373953E1,-1.2835723E1,5.287975E1,7.6316223E0,2.9606186E1,-1.1264033E0,1.24833336E2,3.877376E1],"categories":[],"categories_nodes":[],"categories_segments":[],"categories_sizes":[],"default_left":[0,0,0,0,0,0,0,0,0,0,0,0,0,0,0,0,0,0,0,0,0,0,0,0,0,0,0,0,0,0,0,0,0,0,0,0,0,0,0,0,0,0,0,0,0,0,0,0,0,0,0,0,0,0,0,0,0,0,0,0,0,0,0,0,0,0,0,0,0,0,0,0,0],"id":0,"left_children":[1,3,5,7,9,-1,11,13,15,17,19,21,23,25,-1,27,29,31,33,35,37,39,-1,41,43,-1,45,-1,47,49,51,53,-1,55,57,59,61,-1,63,-1,-1,65,67,69,71,-1,-1,-1,-1,-1,-1,-1,-1,-1,-1,-1,-1,-1,-1,-1,-1,-1,-1,-1,-1,-1,-1,-1,-1,-1,-1,-1,-1],"loss_changes":[1.4426058E8,2.2943556E7,3.2844397E8,6.207792E6,4.0477444E7,0E0,6.851053E7,8.265438E6,1.370646E7,1.2773326E7,1.3424653E7,6.113309E7,5.3222036E7,2.577528E6,0E0,1.2328936E7,8.749616E6,3.9701836E7,3.461475E7,4.011398E6,2.2273934E7,1.603445E6,0E0,1.9793084E7,6.107207E7,0E0,3.0523685E6,0E0,3.9723942E6,9.116537E6,2.380496E6,2.6574572E6,0E0,1.1060605E6,5.60132E5,8.68686E5,1.3356146E7,0E0,8.3543835E6,0E0,0E0,2.215154E7,1.9467164E7,2.3450704E7,3.477993E7,0E0,0E0,0E0,0E0,0E0,0E0,0E0,0E0,0E0,0E0,0E0,0E0,0E0,0E0,0E0,0E0,0E0,0E0,0E0,0E0,0E0,0E0,0E0,0E0,0E0,0E0,0E0,0E0],"parents":[2147483647,0,0,1,1,2,2,3,3,4,4,6,6,7,7,8,8,9,9,10,10,11,11,12,12,13,13,15,15,16,16,17,17,18,18,19,19,20,20,21,21,23,23,24,24,26,26,28,28,29,29,30,30,31,31,33,33,34,34,35,35,36,36,38,38,41,41,42,42,43,43,44,44],"right_children":[2,4,6,8,10,-1,12,14,16,18,20,22,24,26,-1,28,30,32,34,36,38,40,-1,42,44,-1,46,-1,48,50,52,54,-1,56,58,60,62,-1,64,-1,-1,66,68,70,72,-1,-1,-1,-1,-1,-1,-1,-1,-1,-1,-1,-1,-1,-1,-1,-1,-1,-1,-1,-1,-1,-1,-1,-1,-1,-1,-1,-1],"split_conditions":[1.3763898E3,1.0295155E3,7.052718E2,8.027413E2,1.47392E2,3.9609152E2,1.3931036E3,9.802684E2,4.3461285E2,1.103962E3,5.66648E2,1.9936831E3,3.1411995E3,5.9955316E2,3.326808E1,1.0130443E3,1.0914939E3,1.0692661E3,1.2272212E3,2.1507515E3,6.01024E2,1.305769E3,2.5076979E2,7.98968E2,2.7206633E3,-3.918477E1,7.052718E2,7.148902E1,4.2968915E2,2.367564E3,2.163372E3,5.1562E1,1.8791718E2,1.170062E3,1.31154E2,1.2390803E3,3.802E2,7.825729E1,1.0882078E3,-3.5106573E0,3.721667E1,1.6197E2,8.8628E2,5.138934E3,3E0,-3.28981E-1,-3.3544506E1,2.2214062E1,-2.3569271E1,-1.0819209E1,3.1376966E1,-2.2039293E1,-6.13626E0,2.7202044E1,-1.8371578E1,-3.0886112E1,-2.8826964E0,9.878463E1,3.5846622E1,-3.2900536E1,-1.689551E1,4.8630665E1,-3.1445383E1,1.3249805E1,-8.886096E0,1.2373953E1,-1.2835723E1,5.287975E1,7.6316223E0,2.9606186E1,-1.1264033E0,1.24833336E2,3.877376E1],"split_indices":[2,2,3,3,1,0,2,2,2,2,1,3,1,2,0,3,3,2,2,3,1,1,0,1,3,0,3,0,2,1,3,1,0,2,1,2,1,0,2,0,0,1,1,1,4,0,0,0,0,0,0,0,0,0,0,0,0,0,0,0,0,0,0,0,0,0,0,0,0,0,0,0,0],"split_type":[0,0,0,0,0,0,0,0,0,0,0,0,0,0,0,0,0,0,0,0,0,0,0,0,0,0,0,0,0,0,0,0,0,0,0,0,0,0,0,0,0,0,0,0,0,0,0,0,0,0,0,0,0,0,0,0,0,0,0,0,0,0,0,0,0,0,0,0,0,0,0,0,0],"sum_hessian":[8.64E2,4.04E2,4.6E2,2.57E2,1.47E2,1E0,4.59E2,3.1E1,2.26E2,1.4E1,1.33E2,4E0,4.55E2,3E1,1E0,7E0,2.19E2,4E0,1E1,3.3E1,1E2,3E0,1E0,3.45E2,1.1E2,2.1E1,9E0,2E0,5E0,6.8E1,1.51E2,3E0,1E0,6E0,4E0,2.7E1,6E0,2E0,9.8E1,1E0,2E0,1.43E2,2.02E2,9.1E1,1.9E1,5E0,4E0,2E0,3E0,6.4E1,4E0,1.41E2,1E1,2E0,1E0,4E0,2E0,2E0,2E0,1.9E1,8E0,2E0,4E0,1.8E1,8E1,4.5E1,9.8E1,8E0,1.94E2,5.3E1,3.8E1,7E0,1.2E1],"tree_param":{"num_deleted":"0","num_feature":"6","num_nodes":"73","size_leaf_vector":"1"}},{"base_weights":[-1.3511263E1,-3.896975E2,3.1507526E2,-4.345973E2,9.01746E2,3.9015015E2,2.5981732E2,-9.846517E2,-3.6792056E2,4.177084E3,7.7659507E0,3.9767834E3,2.1893956E2,-3.707997E1,-5.808552E2,1.3529637E2,-5.206847E2,1.8509842E2,2.8703594E0,-9.704172E2,1.5713058E3,8.541752E2,2.4700824E2,2.1316534E1,8.273599E2,-1.7849935E0,-1.0439329E3,2.5407402E3,1.3332979E1,-1.9110028E2,-7.587836E2,-5.7726083E0,-3.1622128E1,-9.748226E1,8.148975E1,-3.457998E0,3.647234E1,-2.7311487E2,2.420335E2,5.561907E2,2.5619194E3,-1.7375044E1,4.038112E1,3.322445E0,-3.5536083E1,-1.3389446E1,1.1055591E2,-1.4463576E1,1.0098644E1,-1.4789075E1,2.1632881E1,1.5841714E1,-2.3876335E1,-1.1555494E1,7.168793E0,-1.3878505E1,8.342965E0,5.0474274E1,5.197565E0,2.616732E0,3.571704E1,1.21556465E2,2.25515E1],"categories":[],"categories_nodes":[],"categories_segments":[],"categories_sizes":[],"default_left":[0,0,0,0,0,0,0,0,0,0,0,0,0,0,0,0,0,0,0,0,0,0,0,0,0,0,0,0,0,0,0,0,0,0,0,0,0,0,0,0,0,0,0,0,0,0,0,0,0,0,0,0,0,0,0,0,0,0,0,0,0,0,0],"id":1,"left_children":[1,3,5,7,9,-1,11,13,15,17,19,21,23,-1,25,27,29,-1,-1,31,33,35,-1,37,39,41,43,45,47,49,51,-1,-1,53,-1,-1,-1,55,57,59,61,-1,-1,-1,-1,-1,-1,-1,-1,-1,-1,-1,-1,-1,-1,-1,-1,-1,-1,-1,-1,-1,-1],"loss_changes":[1.0791047E8,2.3992E7,3.2338925E8,1.4088E7,4.0960776E7,0E0,6.978201E7,3.54478E6,2.7206804E7,2.3810716E7,1.987796E7,5.942904E7,5.541202E7,0E0,4.824918E6,2.4316342E7,2.112136E7,0E0,0E0,3.178345E5,9.818767E6,1.542217E6,0E0,2.2746216E7,5.172567E7,7.7834715E6,1.754704E6,1.5318976E7,1.2976213E7,3.2022302E7,7.914576E6,0E0,0E0,3.8242734E5,0E0,0E0,0E0,1.5797066E7,1.9523612E7,2.9348818E7,3.741115E7,0E0,0E0,0E0,0E0,0E0,0E0,0E0,0E0,0E0,0E0,0E0,0E0,0E0,0E0,0E0,0E0,0E0,0E0,0E0,0E0,0E0,0E0],"parents":[2147483647,0,0,1,1,2,2,3,3,4,4,6,6,7,7,8,8,9,9,10,10,11,11,12,12,14,14,15,15,16,16,19,19,20,20,21,21,23,23,24,24,25,25,26,26,27,27,28,28,29,29,30,30,33,33,37,37,38,38,39,39,40,40],"right_children":[2,4,6,8,10,-1,12,14,16,18,20,22,24,-1,26,28,30,-1,-1,32,34,36,-1,38,40,42,44,46,48,50,52,-1,-1,54,-1,-1,-1,56,58,60,62,-1,-1,-1,-1,-1,-1,-1,-1,-1,-1,-1,-1,-1,-1,-1,-1,-1,-1,-1,-1,-1,-1],"split_conditions":[1.3763898E3,3.26242E3,7.052718E2,8.27841E2,3.536904E3,3.9015015E2,1.3931036E3,5.9955316E2,1.0835186E3,9.7112E1,5E0,7.6302E2,3.1411995E3,-3.707997E1,7.052718E2,1.6776E1,4.82584E2,1.8509842E2,2.8703594E0,6.45581E2,4.53374E2,8.85E0,2.4700824E2,7.98968E2,2.875304E3,5.0669855E2,6.3755286E2,4.98E0,3.2411E2,1.0753801E3,2.208E1,-5.7726083E0,-3.1622128E1,3.810464E3,8.148975E1,-3.457998E0,3.647234E1,2.591863E3,8.8628E2,1.956197E3,3E0,-1.7375044E1,4.038112E1,3.322445E0,-3.5536083E1,-1.3389446E1,1.1055591E2,-1.4463576E1,1.0098644E1,-1.4789075E1,2.1632881E1,1.5841714E1,-2.3876335E1,-1.1555494E1,7.168793E0,-1.3878505E1,8.342965E0,5.0474274E1,5.197565E0,2.616732E0,3.571704E1,1.21556465E2,2.25515E1],"split_indices":[2,0,3,3,0,0,2,2,3,1,4,0,1,0,3,1,0,0,0,2,1,0,0,1,3,3,2,1,0,2,1,0,0,0,0,0,0,2,1,0,4,0,0,0,0,0,0,0,0,0,0,0,0,0,0,0,0,0,0,0,0,0,0],"split_type":[0,0,0,0,0,0,0,0,0,0,0,0,0,0,0,0,0,0,0,0,0,0,0,0,0,0,0,0,0,0,0,0,0,0,0,0,0,0,0,0,0,0,0,0,0,0,0,0,0,0,0,0,0,0,0,0,0,0,0,0,0,0,0],"sum_hessian":[8.71E2,4.06E2,4.65E2,3.93E2,1.3E1,1E0,4.64E2,4.1E1,3.52E2,2E0,1.1E1,4E0,4.6E2,2.4E1,1.7E1,8.2E1,2.7E2,1E0,1E0,7E0,4E0,3E0,1E0,3.48E2,1.12E2,8E0,9E0,3E0,7.9E1,1.14E2,1.56E2,1E0,6E0,2E0,2E0,1E0,2E0,1.49E2,1.99E2,9.8E1,1.4E1,6E0,2E0,1E0,8E0,1E0,2E0,3.1E1,4.8E1,8.6E1,2.8E1,4E0,1.52E2,1E0,1E0,1.11E2,3.8E1,8E0,1.91E2,5.7E1,4.1E1,7E0,7E0],"tree_param":{"num_deleted":"0","num_feature":"6","num_nodes":"63","size_leaf_vector":"1"}},{"base_weights":[-4.1154686E1,-2.955475E2,3.4311902E2,-4.0658118E2,1.3590253E2,5.823226E3,2.783994E2,-1.0354723E3,-3.7061606E2,3.5495956E2,-4.7307907E2,-2.3269558E1,3.8429788E2,1.5651459E2,1.5039941E3,-6.391855E2,-3.78197E1,2.9989868E2,-4.0707935E2,-6.91399E2,5.497787E2,-7.319106E2,1.8342552E2,-5.8045918E1,6.4435034E2,-1.5249075E2,2.4226853E3,-3.1176184E1,2.2064703E2,-1.6845555E2,2.332518E3,3.3463885E2,-4.5189825E2,-1.0501306E3,3.782797E2,2.5851533E3,3.4720685E2,-1.0537085E3,2.482021E2,-5.6205994E2,8.922259E2,-1.7919426E2,3.891181E2,2.578624E3,5.3222296E2,1.2688973E3,-5.636581E2,4.443081E3,1.2394385E3,-1.8277477E0,1.0044379E1,-1.2764653E1,2.5125948E1,-4.74631E0,1.4707054E2,2.2971529E1,-1.1193309E1,-2.1349104E1,-9.281724E0,-3.974603E0,-3.788942E1,2.786344E1,-1.9098377E1,2.5894093E1,1.2058375E2,7.66248E0,9.057359E1,-3.4354355E1,-1.4793358E1,3.3971546E1,-1.4309564E1,-2.300539E1,3.8562872E0,4.148917E1,3.1221204E0,-1.4441555E1,-1.8198429E-1,1.740437E2,-3.3526886E0,-2.0081598E1,1.067392E2,3.3214152E0,2.6067371E1,-4.4139147E0,6.1514294E1,-8.838867E0,-2.680634E1,3.6696495E1,1.4327568E2,7.000363E1,3.8173435E0],"categories":[],"categories_nodes":[],"categories_segments":[],"categories_sizes":[],"default_left":[0,0,0,0,0,0,0,0,0,0,0,0,0,0,0,0,0,0,0,0,0,0,0,0,0,0,0,0,0,0,0,0,0,0,0,0,0,0,0,0,0,0,0,0,0,0,0,0,0,0,0,0,0,0,0,0,0,0,0,0,0,0,0,0,0,0,0,0,0,0,0,0,0,0,0,0,0,0,0,0,0,0,0,0,0,0,0,0,0,0,0],"id":2,"left_children":[1,3,5,7,9,11,13,15,17,19,21,-1,-1,23,25,27,-1,29,31,33,35,37,39,41,43,45,47,-1,49,51,53,55,57,59,61,63,65,67,69,71,73,75,77,79,81,83,85,87,89,-1,-1,-1,-1,-1,-1,-1,-1,-1,-1,-1,-1,-1,-1,-1,-1,-1,-1,-1,-1,-1,-1,-1,-1,-1,-1,-1,-1,-1,-1,-1,-1,-1,-1,-1,-1,-1,-1,-1,-1,-1,-1],"loss_changes":[8.514953E7,2.5157728E7,1.2144944E8,9.048008E6,1.4575308E7,1.9435366E8,5.115181E7,1.157434E6,9.803952E6,1.6688173E7,5.06205E6,0E0,0E0,3.2903872E7,4.754517E7,3.6688058E6,0E0,2.0384628E7,1.2650596E7,5.3857005E6,2.7139468E7,6.884894E6,5.2570875E6,1.1933654E7,1.9448564E7,7.728365E6,4.230563E7,0E0,1.489818E5,5.0106515E6,2.637863E7,6.997801E6,1.292004E7,1.785877E6,2.8260735E6,1.135004E7,1.468007E7,2.55462E5,4.3873215E6,8.057031E5,1.7899952E6,9.048049E6,1.2806073E8,1.8286344E7,1.2960224E7,3.6219015E6,6.2422725E5,1.658512E6,1.6737684E7,0E0,0E0,0E0,0E0,0E0,0E0,0E0,0E0,0E0,0E0,0E0,0E0,0E0,0E0,0E0,0E0,0E0,0E0,0E0,0E0,0E0,0E0,0E0,0E0,0E0,0E0,0E0,0E0,0E0,0E0,0E0,0E0,0E0,0E0,0E0,0E0,0E0,0E0,0E0,0E0,0E0,0E0],"parents":[2147483647,0,0,1,1,2,2,3,3,4,4,5,5,6,6,7,7,8,8,9,9,10,10,13,13,14,14,15,15,17,17,18,18,19,19,20,20,21,21,22,22,23,23,24,24,25,25,26,26,28,28,29,29,30,30,31,31,32,32,33,33,34,34,35,35,36,36,37,37,38,38,39,39,40,40,41,41,42,42,43,43,44,44,45,45,46,46,47,47,48,48],"right_children":[2,4,6,8,10,12,14,16,18,20,22,-1,-1,24,26,28,-1,30,32,34,36,38,40,42,44,46,48,-1,50,52,54,56,58,60,62,64,66,68,70,72,74,76,78,80,82,84,86,88,90,-1,-1,-1,-1,-1,-1,-1,-1,-1,-1,-1,-1,-1,-1,-1,-1,-1,-1,-1,-1,-1,-1,-1,-1,-1,-1,-1,-1,-1,-1,-1,-1,-1,-1,-1,-1,-1,-1,-1,-1,-1,-1],"split_conditions":[1.356602E3,2.1507515E3,7.052718E2,6.43068E2,2.6924458E3,7.43046E2,2.6924458E3,4.884E1,4.3286E1,1.0252E2,2.255403E3,-2.3269558E1,3.8429788E2,1.956197E3,3.406855E3,2.208E1,-3.78197E1,1.6744883E3,3.112E1,7E0,1.7475E2,1.119786E3,2.9006685E3,2.2370205E3,2.013993E3,8.98824E2,3E0,-3.1176184E1,2.3968E1,3.3064E1,7.58596E2,1.328346E3,5.90762E2,3E0,1.956197E3,2.2588967E3,7.879734E3,3.4534883E3,4E0,6.120656E3,5.1484473E3,3E0,2.248636E3,1.450126E3,2.859974E3,7.38598E2,5E0,2.7206633E3,6.402018E3,-1.8277477E0,1.0044379E1,-1.2764653E1,2.5125948E1,-4.74631E0,1.4707054E2,2.2971529E1,-1.1193309E1,-2.1349104E1,-9.281724E0,-3.974603E0,-3.788942E1,2.786344E1,-1.9098377E1,2.5894093E1,1.2058375E2,7.66248E0,9.057359E1,-3.4354355E1,-1.4793358E1,3.3971546E1,-1.4309564E1,-2.300539E1,3.8562872E0,4.148917E1,3.1221204E0,-1.4441555E1,-1.8198429E-1,1.740437E2,-3.3526886E0,-2.0081598E1,1.067392E2,3.3214152E0,2.6067371E1,-4.4139147E0,6.1514294E1,-8.838867E0,-2.680634E1,3.6696495E1,1.4327568E2,7.000363E1,3.8173435E0],"split_indices":[1,3,3,3,3,0,3,1,0,1,0,0,0,0,1,1,0,3,1,4,1,1,3,3,0,0,4,0,1,0,1,0,0,4,0,3,0,3,4,0,0,4,3,1,1,0,4,3,1,0,0,0,0,0,0,0,0,0,0,0,0,0,0,0,0,0,0,0,0,0,0,0,0,0,0,0,0,0,0,0,0,0,0,0,0,0,0,0,0,0,0],"split_type":[0,0,0,0,0,0,0,0,0,0,0,0,0,0,0,0,0,0,0,0,0,0,0,0,0,0,0,0,0,0,0,0,0,0,0,0,0,0,0,0,0,0,0,0,0,0,0,0,0,0,0,0,0,0,0,0,0,0,0,0,0,0,0,0,0,0,0,0,0,0,0,0,0,0,0,0,0,0,0,0,0,0,0,0,0,0,0,0,0,0,0],"sum_hessian":[8.69E2,5.23E2,3.46E2,4.16E2,1.07E2,3E0,3.43E2,2.1E1,3.95E2,7.9E1,2.8E1,2E0,1E0,3.13E2,3E1,9E0,1.2E1,2E1,3.75E2,1.2E1,6.7E1,2E1,8E0,2.18E2,9.5E1,1.1E1,1.9E1,6E0,3E0,1.7E1,3E0,2.1E1,3.54E2,9E0,3E0,5E0,6.2E1,1.5E1,5E0,4E0,4E0,1.72E2,4.6E1,4E0,9.1E1,2E0,9E0,6E0,1.3E1,1E0,2E0,1.4E1,3E0,2E0,1E0,1.3E1,8E0,1.24E2,2.3E2,2E0,7E0,2E0,1E0,3E0,2E0,6.1E1,1E0,1.2E1,3E0,2E0,3E0,3E0,1E0,2E0,2E0,6.2E1,1.1E2,3E0,4.3E1,1E0,3E0,4.1E1,5E1,1E0,1E0,6E0,3E0,1E0,5E0,6E0,7E0],"tree_param":{"num_deleted":"0","num_feature":"6","num_nodes":"91","size_leaf_vector":"1"}},{"base_weights":[-4.909385E0,-5.0335904E2,2.966749E2,-9.717283E2,-4.4586017E2,3.7853342E2,2.5182077E2,-3.593053E1,-4.7983026E2,9.6421356E2,-4.728453E2,-4.047749E0,5.3484216E2,1.274967E2,-3.05583E1,6.930826E1,-2.863862E2,-5.0449054E2,1.1445477E2,-2.4100964E2,5.507045E2,-3.0305258E2,6.902536E2,2.7388374E1,-1.5556912E2,5.440413E0,-1.508239E1,-6.0105133E2,-2.2996875E2,7.671873E1,-4.171855E2,-4.27526E2,2.5405109E2,1.9167233E3,2.883716E2,6.7969086E2,-4.5422577E2,2.263087E3,6.057868E2,1.50047E1,-1.1602368E1,-2.5058914E1,-1.2872415E1,1.6497004E1,-1.2539094E1,-3.3682842E1,7.570251E0,1.8411255E1,-1.543023E1,1.1014233E2,-2.1940434E0,1.7256801E2,1.0431976E1,-3.1813255E1,1.6103048E1,-2.5042776E1,4.936817E1,-2.8230513E1,-5.487757E0,7.4947495E1,-1.3281354E0,8.98926E1,1.6720987E1],"categories":[],"categories_nodes":[],"categories_segments":[],"categories_sizes":[],"default_left":[0,0,0,0,0,0,0,0,0,0,0,0,0,0,0,0,0,0,0,0,0,0,0,0,0,0,0,0,0,0,0,0,0,0,0,0,0,0,0,0,0,0,0,0,0,0,0,0,0,0,0,0,0,0,0,0,0,0,0,0,0,0,0],"id":3,"left_children":[1,3,5,7,9,-1,11,-1,13,15,17,19,21,23,-1,-1,25,27,29,31,33,35,37,-1,39,-1,-1,41,43,-1,45,47,49,51,53,55,57,59,61,-1,-1,-1,-1,-1,-1,-1,-1,-1,-1,-1,-1,-1,-1,-1,-1,-1,-1,-1,-1,-1,-1,-1,-1],"loss_changes":[1.3438918E8,8.642384E6,3.0464992E8,3.42662E6,1.1947332E7,0E0,4.0265612E7,0E0,4.383671E6,1.0761938E7,5.57756E6,3.864909E7,3.458684E7,1.6983628E6,0E0,0E0,4.9596703E5,7.337048E6,2.1846226E7,1.9130018E7,3.0982218E7,6.54844E6,2.8255072E7,0E0,1.1029638E6,0E0,0E0,8.020552E6,1.1226055E7,0E0,6.896952E6,1.3874874E7,6.4000884E7,8.22508E7,2.5697276E7,1.0150664E7,4.7143335E6,6.07926E6,2.2985888E7,0E0,0E0,0E0,0E0,0E0,0E0,0E0,0E0,0E0,0E0,0E0,0E0,0E0,0E0,0E0,0E0,0E0,0E0,0E0,0E0,0E0,0E0,0E0,0E0],"parents":[2147483647,0,0,1,1,2,2,3,3,4,4,6,6,8,8,9,9,10,10,11,11,12,12,13,13,16,16,17,17,18,18,19,19,20,20,21,21,22,22,24,24,27,27,28,28,30,30,31,31,32,32,33,33,34,34,35,35,36,36,37,37,38,38],"right_children":[2,4,6,8,10,-1,12,-1,14,16,18,20,22,24,-1,-1,26,28,30,32,34,36,38,-1,40,-1,-1,42,44,-1,46,48,50,52,54,56,58,60,62,-1,-1,-1,-1,-1,-1,-1,-1,-1,-1,-1,-1,-1,-1,-1,-1,-1,-1,-1,-1,-1,-1,-1,-1],"split_conditions":[1.1957589E3,8.027413E2,7.052718E2,5.9955316E2,4.3461285E2,3.7853342E2,2.0992847E3,-3.593053E1,2.93152E2,1.0130443E3,2.546643E3,6E0,1.4832675E3,1.086E1,-3.05583E1,6.930826E1,4.2968915E2,1.240266E3,7.5672614E2,2.212182E3,1.1805764E3,9.252E1,2.1507368E3,2.7388374E1,1.086E1,5.440413E0,-1.508239E1,7.4039514E2,7.477907E2,7.671873E1,1.0481503E3,1.235728E3,2.343799E3,9.252E1,9.0184E1,1.9536E1,2.2445417E3,4.878392E3,1.5392704E3,1.50047E1,-1.1602368E1,-2.5058914E1,-1.2872415E1,1.6497004E1,-1.2539094E1,-3.3682842E1,7.570251E0,1.8411255E1,-1.543023E1,1.1014233E2,-2.1940434E0,1.7256801E2,1.0431976E1,-3.1813255E1,1.6103048E1,-2.5042776E1,4.936817E1,-2.8230513E1,-5.487757E0,7.4947495E1,-1.3281354E0,8.98926E1,1.6720987E1],"split_indices":[2,3,3,2,2,0,2,0,1,3,1,4,3,0,0,0,2,0,2,1,3,1,2,0,1,0,0,2,2,0,2,2,1,1,1,1,2,0,3,0,0,0,0,0,0,0,0,0,0,0,0,0,0,0,0,0,0,0,0,0,0,0,0],"split_type":[0,0,0,0,0,0,0,0,0,0,0,0,0,0,0,0,0,0,0,0,0,0,0,0,0,0,0,0,0,0,0,0,0,0,0,0,0,0,0,0,0,0,0,0,0,0,0,0,0,0,0,0,0,0,0,0,0,0,0,0,0,0,0],"sum_hessian":[8.92E2,3.36E2,5.56E2,3.5E1,3.01E2,1E0,5.55E2,2.3E1,1.2E1,5E0,2.96E2,2.92E2,2.63E2,6E0,6E0,2E0,3E0,2.81E2,1.5E1,2.05E2,8.7E1,4.1E1,2.22E2,1E0,5E0,1E0,2E0,2.07E2,7.4E1,2E0,1.3E1,1.49E2,5.6E1,1.3E1,7.4E1,5E0,3.6E1,1E1,2.12E2,1E0,4E0,8.6E1,1.21E2,1.4E1,6E1,6E0,7E0,1.1E1,1.38E2,4E0,5.2E1,3E0,1E1,1.1E1,6.3E1,2E0,3E0,1.2E1,2.4E1,9E0,1E0,3E0,2.09E2],"tree_param":{"num_deleted":"0","num_feature":"6","num_nodes":"63","size_leaf_vector":"1"}},{"base_weights":[1.07077265E1,-5.638051E2,2.4983711E2,-6.2939954E2,6.746336E1,7.8739443E3,2.1211745E2,-7.731151E2,-4.9348288E2,-3.596963E1,2.946607E2,-1.852792E1,3.728554E2,-4.5901062E1,5.844226E2,-8.153513E2,-2.9126665E1,9.6786597E2,-5.384569E2,6.926084E2,-3.5710913E2,-1.9822267E2,3.458064E2,-2.0568285E2,7.2634607E2,-9.568065E2,-6.1311957E2,4.9916034E2,-2.6996883E1,-5.215601E2,8.154216E1,-9.963039E1,-6.425546E2,1.1336932E3,-6.9352686E2,-4.6562003E2,1.5119344E1,5.717666E2,-2.9651218E2,4.4510864E1,1.6596495E3,4.878416E2,-4.6165134E2,7.7742114E2,-3.4959427E1,3.0211036E0,-2.985026E1,-1.6634563E0,-2.4249413E1,2.4097445E1,8.6057186E-1,-2.0649837E1,-2.8203661E0,-1.36057205E1,3.1129133E1,-1.3306605E1,-2.4731432E1,2.0985022E1,6.1751183E1,-5.794248E0,-2.3878242E1,-9.7867066E-1,-1.8968838E1,2.8392205E0,-2.15885E0,5.1479793E0,1.8264925E2,-4.4844418E0,-3.2140137E1,-7.9862347E0,3.156363E1,1.9223628E2,2.172302E1,3.863587E1,-2.1892673E1,-1.851295E1,1.9925016E1,1.4006625E1,3.775629E1],"categories":[],"categories_nodes":[],"categories_segments":[],"categories_sizes":[],"default_left":[0,0,0,0,0,0,0,0,0,0,0,0,0,0,0,0,0,0,0,0,0,0,0,0,0,0,0,0,0,0,0,0,0,0,0,0,0,0,0,0,0,0,0,0,0,0,0,0,0,0,0,0,0,0,0,0,0,0,0,0,0,0,0,0,0,0,0,0,0,0,0,0,0,0,0,0,0,0,0],"id":4,"left_children":[1,3,5,7,9,11,13,15,17,-1,19,-1,-1,21,23,25,27,29,31,33,35,37,39,41,43,45,47,49,-1,51,-1,53,55,57,59,61,63,65,67,69,71,73,75,77,-1,-1,-1,-1,-1,-1,-1,-1,-1,-1,-1,-1,-1,-1,-1,-1,-1,-1,-1,-1,-1,-1,-1,-1,-1,-1,-1,-1,-1,-1,-1,-1,-1,-1,-1],"loss_changes":[1.19663976E8,1.0642832E7,1.7519077E8,4.150216E6,7.546653E6,1.2370176E8,5.8912604E7,3.464228E6,8.539334E6,0E0,5.9534835E6,0E0,0E0,2.1727126E7,2.8295152E7,2.417064E6,3.6693058E6,1.1844848E7,5.372004E6,9.345892E6,3.705575E5,1.9998184E7,4.0303348E7,7.148509E6,2.1485296E7,2.524152E6,4.962474E6,6.9228625E5,0E0,1.4919244E5,0E0,1.0129922E7,3.107976E6,2.976545E6,5.1257625E4,4.8456088E5,2.75849E4,6.518143E7,2.6383968E7,2.6579078E7,7.976182E7,1.1654961E7,5.485007E6,3.0488544E7,0E0,0E0,0E0,0E0,0E0,0E0,0E0,0E0,0E0,0E0,0E0,0E0,0E0,0E0,0E0,0E0,0E0,0E0,0E0,0E0,0E0,0E0,0E0,0E0,0E0,0E0,0E0,0E0,0E0,0E0,0E0,0E0,0E0,0E0,0E0],"parents":[2147483647,0,0,1,1,2,2,3,3,4,4,5,5,6,6,7,7,8,8,10,10,13,13,14,14,15,15,16,16,17,17,18,18,19,19,20,20,21,21,22,22,23,23,24,24,25,25,26,26,27,27,29,29,31,31,32,32,33,33,34,34,35,35,36,36,37,37,38,38,39,39,40,40,41,41,42,42,43,43],"right_children":[2,4,6,8,10,12,14,16,18,-1,20,-1,-1,22,24,26,28,30,32,34,36,38,40,42,44,46,48,50,-1,52,-1,54,56,58,60,62,64,66,68,70,72,74,76,78,-1,-1,-1,-1,-1,-1,-1,-1,-1,-1,-1,-1,-1,-1,-1,-1,-1,-1,-1,-1,-1,-1,-1,-1,-1,-1,-1,-1,-1,-1,-1,-1,-1,-1,-1],"split_conditions":[1.0295155E3,1.970978E3,7.052718E2,7.268646E2,8.819767E2,2.12637E3,2.0992847E3,1.4549E3,2.1072E1,-3.596963E1,6.356E2,-1.852792E1,3.728554E2,6E0,1.4832675E3,4.18666E2,1.592196E3,1.154852E3,1.47392E2,3.605685E3,2.111713E3,1.103962E3,2.157394E3,2.75218E2,1.2196997E4,1.086E1,4.6450415E2,1.522652E3,-2.6996883E1,1.086E1,8.154216E1,1.0252E2,8.724221E2,2.71959E3,3.876516E3,8.110554E2,2.13509E3,3.26242E3,5E0,1.6460905E3,1.1805764E3,1.3855966E3,2.8702495E3,2.974058E3,-3.4959427E1,3.0211036E0,-2.985026E1,-1.6634563E0,-2.4249413E1,2.4097445E1,8.6057186E-1,-2.0649837E1,-2.8203661E0,-1.36057205E1,3.1129133E1,-1.3306605E1,-2.4731432E1,2.0985022E1,6.1751183E1,-5.794248E0,-2.3878242E1,-9.7867066E-1,-1.8968838E1,2.8392205E0,-2.15885E0,5.1479793E0,1.8264925E2,-4.4844418E0,-3.2140137E1,-7.9862347E0,3.156363E1,1.9223628E2,2.172302E1,3.863587E1,-2.1892673E1,-1.851295E1,1.9925016E1,1.4006625E1,3.775629E1],"split_indices":[2,0,3,2,3,0,2,0,0,0,1,0,0,4,3,1,0,1,1,0,3,2,0,1,1,0,2,0,0,0,0,1,2,0,0,2,0,0,4,2,3,3,2,1,0,0,0,0,0,0,0,0,0,0,0,0,0,0,0,0,0,0,0,0,0,0,0,0,0,0,0,0,0,0,0,0,0,0,0],"split_type":[0,0,0,0,0,0,0,0,0,0,0,0,0,0,0,0,0,0,0,0,0,0,0,0,0,0,0,0,0,0,0,0,0,0,0,0,0,0,0,0,0,0,0,0,0,0,0,0,0,0,0,0,0,0,0,0,0,0,0,0,0,0,0,0,0,0,0,0,0,0,0,0,0,0,0,0,0,0,0],"sum_hessian":[8.69E2,2.55E2,6.14E2,2.31E2,2.4E1,2E0,6.12E2,1.1E2,1.21E2,3E0,2.1E1,1E0,1E0,3.62E2,2.5E2,1.04E2,6E0,3E0,1.18E2,1.3E1,8E0,2.61E2,1.01E2,3.8E1,2.12E2,5.9E1,4.5E1,4E0,2E0,2E0,1E0,2.3E1,9.5E1,1E1,3E0,6E0,2E0,2.9E1,2.32E2,8.3E1,1.8E1,1E1,2.8E1,2.07E2,5E0,2E0,5.7E1,1.2E1,3.3E1,2E0,2E0,1E0,1E0,1.8E1,5E0,4.7E1,4.8E1,8E0,2E0,1E0,2E0,2E0,4E0,1E0,1E0,2.8E1,1E0,1.96E2,3.6E1,6.4E1,1.9E1,2E0,1.6E1,6E0,4E0,2.5E1,3E0,1.27E2,8E1],"tree_param":{"num_deleted":"0","num_feature":"6","num_nodes":"79","size_leaf_vector":"1"}},{"base_weights":[8.863647E0,-2.0384067E2,5.181791E2,-2.632248E2,6.712328E2,7.7976733E2,2.917718E1,-4.6616296E2,-9.423794E1,3.6726257E2,6.064458E1,2.2394322E2,1.0508394E3,-1.0765808E3,1.473039E2,-8.1090424E2,-4.1041904E2,-2.0658022E2,4.2970844E2,2.6784368E3,-2.3190579E2,-3.215497E2,8.004019E2,2.3345293E3,7.858294E2,-3.512927E1,-4.8213334E0,2.513807E2,-6.480025E2,-3.35429E1,-1.8140248E2,3.244457E1,-5.489983E2,4.0362323E2,-2.832731E2,-1.8316293E2,9.8739813E2,1.7990952E2,-4.2674026E2,-1.0778484E3,2.9309863E2,4.8280106E1,-4.4362637E2,-4.8920547E2,1.9506754E3,1.4420823E3,1.9840659E2,-6.017867E2,1.0104173E3,4.7388683E1,3.0977913E3,-3.626466E1,1.5458133E2,-2.6826645E1,3.6559613E0,6.8237236E1,-2.781571E0,2.2417004E1,-1.7045757E1,-2.3918617E1,5.499124E1,-1.1981032E1,5.392532E0,5.9898735E1,-1.5738072E1,9.127625E1,1.3640031E1,2.3991394E0,-2.1602451E1,-5.707335E0,-3.394474E1,8.110907E1,1.819087E0,7.7756796E0,-1.6993334E1,-1.7417082E0,-3.7609844E1,9.22729E1,-7.4875116E0,8.08341E1,2.0871449E1,2.3572638E0,-2.9654886E1,4.873182E1,2.0049387E1,1.3894372E1,-9.168625E0,2.5817291E1,1.03258514E2,3.377978E1,-1.1093089E1],"categories":[],"categories_nodes":[],"categories_segments":[],"categories_sizes":[],"default_left":[0,0,0,0,0,0,0,0,0,0,0,0,0,0,0,0,0,0,0,0,0,0,0,0,0,0,0,0,0,0,0,0,0,0,0,0,0,0,0,0,0,0,0,0,0,0,0,0,0,0,0,0,0,0,0,0,0,0,0,0,0,0,0,0,0,0,0,0,0,0,0,0,0,0,0,0,0,0,0,0,0,0,0,0,0,0,0,0,0,0,0],"id":5,"left_children":[1,3,5,7,9,11,13,15,17,-1,19,21,23,25,27,29,31,33,35,37,39,41,43,45,47,-1,-1,49,51,-1,53,55,57,59,61,63,65,-1,67,69,71,-1,73,75,77,79,-1,81,83,85,87,-1,89,-1,-1,-1,-1,-1,-1,-1,-1,-1,-1,-1,-1,-1,-1,-1,-1,-1,-1,-1,-1,-1,-1,-1,-1,-1,-1,-1,-1,-1,-1,-1,-1,-1,-1,-1,-1,-1,-1],"loss_changes":[9.5980856E7,3.2655102E7,3.3363624E7,2.0052288E7,2.8185862E8,2.5378288E7,1.2175585E7,4.778972E6,1.898326E7,0E0,3.0488752E7,1.8181256E7,3.6947176E7,5.8989E5,7.115823E6,6.758792E6,1.4194668E7,1.2515876E7,1.9663E7,4.3777856E7,1.6304365E7,7.7854305E6,4.248951E7,6.3019944E7,3.0525672E7,0E0,0E0,4.3401576E7,4.687907E6,0E0,2.9192508E6,1.5926347E7,4.803352E6,5.295956E7,1.275788E7,2.1886866E7,3.1461786E7,0E0,5.0350444E5,4.51333E5,1.2724324E7,0E0,2.6500525E6,4.541533E6,3.7899936E7,1.4016016E7,0E0,3.7611075E6,1.6348064E7,1.0561947E7,8.87732E5,0E0,2.9631605E6,0E0,0E0,0E0,0E0,0E0,0E0,0E0,0E0,0E0,0E0,0E0,0E0,0E0,0E0,0E0,0E0,0E0,0E0,0E0,0E0,0E0,0E0,0E0,0E0,0E0,0E0,0E0,0E0,0E0,0E0,0E0,0E0,0E0,0E0,0E0,0E0,0E0,0E0],"parents":[2147483647,0,0,1,1,2,2,3,3,4,4,5,5,6,6,7,7,8,8,10,10,11,11,12,12,13,13,14,14,15,15,16,16,17,17,18,18,19,19,20,20,21,21,22,22,23,23,24,24,27,27,28,28,30,30,31,31,32,32,33,33,34,34,35,35,36,36,38,38,39,39,40,40,42,42,43,43,44,44,45,45,47,47,48,48,49,49,50,50,52,52],"right_children":[2,4,6,8,10,12,14,16,18,-1,20,22,24,26,28,30,32,34,36,38,40,42,44,46,48,-1,-1,50,52,-1,54,56,58,60,62,64,66,-1,68,70,72,-1,74,76,78,80,-1,82,84,86,88,-1,90,-1,-1,-1,-1,-1,-1,-1,-1,-1,-1,-1,-1,-1,-1,-1,-1,-1,-1,-1,-1,-1,-1,-1,-1,-1,-1,-1,-1,-1,-1,-1,-1,-1,-1,-1,-1,-1,-1],"split_conditions":[2.0992847E3,3.406855E3,5E0,1.0481503E3,7.052718E2,1.8956678E3,1.3646034E3,8.027413E2,7E0,3.6726257E2,3.536904E3,3E0,2.349748E3,2.780118E3,4.165592E3,5.9955316E2,1.0542168E3,1.1112955E3,1.6460609E3,1.103962E3,1.2268478E3,1.1513264E3,9.46174E2,2.314191E3,8.29544E2,-3.512927E1,-4.8213334E0,3.9236096E3,7E0,-3.35429E1,3E0,4.3461285E2,4.2968915E2,1.0732885E3,2.2370205E3,1.0130443E3,1.9242034E3,1.7990952E2,1.373031E3,6.45581E2,1.2431466E3,4.8280106E1,2.00716E2,2.4473455E3,3.1097834E3,6.69368E2,1.9840659E2,2E0,2.107496E3,2.691348E3,2.103331E3,-3.626466E1,1.6549674E3,-2.6826645E1,3.6559613E0,6.8237236E1,-2.781571E0,2.2417004E1,-1.7045757E1,-2.3918617E1,5.499124E1,-1.1981032E1,5.392532E0,5.9898735E1,-1.5738072E1,9.127625E1,1.3640031E1,2.3991394E0,-2.1602451E1,-5.707335E0,-3.394474E1,8.110907E1,1.819087E0,7.7756796E0,-1.6993334E1,-1.7417082E0,-3.7609844E1,9.22729E1,-7.4875116E0,8.08341E1,2.0871449E1,2.3572638E0,-2.9654886E1,4.873182E1,2.0049387E1,1.3894372E1,-9.168625E0,2.5817291E1,1.03258514E2,3.377978E1,-1.1093089E1],"split_indices":[2,0,4,2,3,3,3,3,4,0,0,4,2,2,2,2,3,3,3,2,3,3,0,2,0,0,0,2,4,0,4,2,2,3,3,3,3,0,2,2,3,0,0,2,0,0,0,4,0,2,3,0,3,0,0,0,0,0,0,0,0,0,0,0,0,0,0,0,0,0,0,0,0,0,0,0,0,0,0,0,0,0,0,0,0,0,0,0,0,0,0],"split_type":[0,0,0,0,0,0,0,0,0,0,0,0,0,0,0,0,0,0,0,0,0,0,0,0,0,0,0,0,0,0,0,0,0,0,0,0,0,0,0,0,0,0,0,0,0,0,0,0,0,0,0,0,0,0,0,0,0,0,0,0,0,0,0,0,0,0,0,0,0,0,0,0,0,0,0,0,0,0,0,0,0,0,0,0,0,0,0,0,0,0,0],"sum_hessian":[8.84E2,6.24E2,2.6E2,5.85E2,3.9E1,1.69E2,9.1E1,2.65E2,3.2E2,1E0,3.8E1,5.6E1,1.13E2,8E0,8.3E1,3.5E1,2.3E2,2.64E2,5.6E1,3E0,3.5E1,2.9E1,2.7E1,1.8E1,9.5E1,7E0,1E0,7.4E1,9E0,2.3E1,1.2E1,5.5E1,1.75E2,2.9E1,2.35E2,2.7E1,2.9E1,1E0,2E0,1.3E1,2.2E1,1E0,2.8E1,1.3E1,1.4E1,1.6E1,2E0,1.3E1,8.2E1,7E1,4E0,5E0,4E0,3E0,9E0,2E0,5.3E1,2E0,1.73E2,1.6E1,1.3E1,1.88E2,4.7E1,3E0,2.4E1,5E0,2.4E1,1E0,1E0,1E0,1.2E1,1E0,2.1E1,4E0,2.4E1,9E0,4E0,9E0,5E0,5E0,1.1E1,5E0,8E0,2.8E1,5.4E1,3.2E1,3.8E1,1E0,3E0,1E0,3E0],"tree_param":{"num_deleted":"0","num_feature":"6","num_nodes":"91","size_leaf_vector":"1"}},{"base_weights":[-1.775658E1,-2.130354E2,4.6323502E2,-4.7637106E2,-2.6909916E1,7.2691064E2,-3.673199E1,-7.926922E2,-4.26894E2,-1.7571686E2,3.751379E2,9.7926746E2,1.6562862E2,-2.0451268E2,6.3643146E2,-1.1200399E3,-1.7774278E2,7.513098E2,-4.6779736E2,4.1471977E1,-5.069622E2,2.175862E2,3.3251035E3,-6.6533165E1,1.2273766E3,-9.9024567E2,4.5746555E2,5.143971E1,-2.5569334E2,-2.4740245E2,1.7721492E3,-7.2174915E2,-1.2242897E3,-2.6223045E1,1.18574974E2,6.687249E1,-1.12795105E2,-2.6157745E2,-5.7052814E2,9.093015E2,-1.1379381E2,-1.0201786E3,-3.0307178E2,-4.0551277E1,1.3384348E3,2.4191E1,1.1259587E2,6.738113E2,-5.063043E2,1.6295187E3,4.0987085E2,1.8257464E0,-1.1014419E3,1.7583723E3,6.1391045E1,7.173459E2,-3.5654843E2,4.8324286E2,-5.817998E2,1.0653368E2,5.873042E2,-3.3246758E1,-4.6450715E0,-2.2193902E0,-3.888135E1,2.4892666E1,-1.481514E1,2.1968664E1,-2.1552279E1,-1.7859497E1,-3.8739368E-1,1.000735E0,-1.8599422E1,1.8772199E0,1.0740529E2,-2.7642206E1,8.546028E-1,-1.3029094E1,-3.6404495E1,7.65201E1,-1.2351951E1,-1.678798E1,1.0319234E1,1.879124E2,9.938598E0,3.6691525E1,-2.4970535E1,2.085442E1,-1.925327E1,4.2874588E1,1.5280974E2,5.6266495E1,-7.356041E0,-3.5257103E1,-6.559301E0,6.4267054E0,7.168641E1,-7.116604E0,5.5223396E1,4.6083168E1,-2.6591064E1,-1.7527014E1,5.5486627E0,1.7243639E1,3.1291132E0,7.3711886E0,-2.2053474E1,3.51092E1,-1.1574013E1],"categories":[],"categories_nodes":[],"categories_segments":[],"categories_sizes":[],"default_left":[0,0,0,0,0,0,0,0,0,0,0,0,0,0,0,0,0,0,0,0,0,0,0,0,0,0,0,0,0,0,0,0,0,0,0,0,0,0,0,0,0,0,0,0,0,0,0,0,0,0,0,0,0,0,0,0,0,0,0,0,0,0,0,0,0,0,0,0,0,0,0,0,0,0,0,0,0,0,0,0,0,0,0,0,0,0,0,0,0,0,0,0,0,0,0,0,0,0,0,0,0,0,0,0,0,0,0,0,0],"id":6,"left_children":[1,3,5,7,9,11,13,15,17,19,21,23,25,27,29,31,33,35,37,39,41,43,45,47,49,51,53,-1,55,57,59,61,63,-1,65,-1,67,69,71,73,75,77,79,81,83,-1,-1,85,87,89,91,-1,93,95,97,99,101,103,105,-1,107,-1,-1,-1,-1,-1,-1,-1,-1,-1,-1,-1,-1,-1,-1,-1,-1,-1,-1,-1,-1,-1,-1,-1,-1,-1,-1,-1,-1,-1,-1,-1,-1,-1,-1,-1,-1,-1,-1,-1,-1,-1,-1,-1,-1,-1,-1,-1,-1],"loss_changes":[8.294272E7,3.0767644E7,3.3643124E7,3.730772E6,2.2142268E7,2.3492248E7,1.018216E7,6.645196E6,1.1291152E7,1.9445578E7,4.575371E7,2.9921016E7,1.8331324E7,7.5105805E6,1.850658E7,2.9848E4,2.7861115E6,1.0467038E7,4.511492E6,2.2201526E7,1.0887282E7,2.7830244E7,2.364816E6,7.829543E6,2.9906176E7,1.352698E6,2.204806E7,0E0,7.223422E6,2.9687348E6,1.4776874E7,1.362097E6,1.224774E6,0E0,4.765127E6,0E0,3.5968515E6,6.216489E6,4.380792E6,5.631356E7,1.611332E7,2.870554E6,2.5237004E7,1.5959886E7,8.721426E7,0E0,0E0,8.463201E6,2.8875628E6,3.575424E7,3.1183904E7,0E0,3.94504E5,9.23438E6,1.8502414E7,1.0552954E7,8.122071E6,7.88075E4,1.1955825E6,0E0,3.8554385E6,0E0,0E0,0E0,0E0,0E0,0E0,0E0,0E0,0E0,0E0,0E0,0E0,0E0,0E0,0E0,0E0,0E0,0E0,0E0,0E0,0E0,0E0,0E0,0E0,0E0,0E0,0E0,0E0,0E0,0E0,0E0,0E0,0E0,0E0,0E0,0E0,0E0,0E0,0E0,0E0,0E0,0E0,0E0,0E0,0E0,0E0,0E0,0E0],"parents":[2147483647,0,0,1,1,2,2,3,3,4,4,5,5,6,6,7,7,8,8,9,9,10,10,11,11,12,12,13,13,14,14,15,15,16,16,17,17,18,18,19,19,20,20,21,21,22,22,23,23,24,24,25,25,26,26,28,28,29,29,30,30,31,31,32,32,34,34,36,36,37,37,38,38,39,39,40,40,41,41,42,42,43,43,44,44,47,47,48,48,49,49,50,50,52,52,53,53,54,54,55,55,56,56,57,57,58,58,60,60],"right_children":[2,4,6,8,10,12,14,16,18,20,22,24,26,28,30,32,34,36,38,40,42,44,46,48,50,52,54,-1,56,58,60,62,64,-1,66,-1,68,70,72,74,76,78,80,82,84,-1,-1,86,88,90,92,-1,94,96,98,100,102,104,106,-1,108,-1,-1,-1,-1,-1,-1,-1,-1,-1,-1,-1,-1,-1,-1,-1,-1,-1,-1,-1,-1,-1,-1,-1,-1,-1,-1,-1,-1,-1,-1,-1,-1,-1,-1,-1,-1,-1,-1,-1,-1,-1,-1,-1,-1,-1,-1,-1,-1],"split_conditions":[2.0992847E3,1.0295155E3,5E0,8.027413E2,6E0,3.2632925E3,2.7734307E3,5.9955316E2,4.3461285E2,4E0,4.107443E3,1.4832675E3,1.121362E3,2.1214082E3,3.428106E3,2.1072E1,3E0,1.0130443E3,1.0914939E3,1.1247083E3,5.8006E2,2.157394E3,1.3931036E3,2.75218E2,3.536904E3,3.428106E3,1.838722E3,5.143971E1,1.29568E2,2.9555706E3,1.018092E3,1.312E1,1.086E1,-2.6223045E1,4E0,6.687249E1,4.2968915E2,3.01742E2,4.3286E1,1.0890568E3,1.1854441E3,9.20946E2,6.01024E2,1.5170087E3,1.1805764E3,2.4191E1,1.1259587E2,1.3855966E3,1.312E1,3.05528E3,2E0,1.8257464E0,9.8317E2,2E0,7.879734E3,1.959552E3,3.356486E3,1.345892E3,2.2163508E3,1.0653368E2,3.110494E3,-3.3246758E1,-4.6450715E0,-2.2193902E0,-3.888135E1,2.4892666E1,-1.481514E1,2.1968664E1,-2.1552279E1,-1.7859497E1,-3.8739368E-1,1.000735E0,-1.8599422E1,1.8772199E0,1.0740529E2,-2.7642206E1,8.546028E-1,-1.3029094E1,-3.6404495E1,7.65201E1,-1.2351951E1,-1.678798E1,1.0319234E1,1.879124E2,9.938598E0,3.6691525E1,-2.4970535E1,2.085442E1,-1.925327E1,4.2874588E1,1.5280974E2,5.6266495E1,-7.356041E0,-3.5257103E1,-6.559301E0,6.4267054E0,7.168641E1,-7.116604E0,5.5223396E1,4.6083168E1,-2.6591064E1,-1.7527014E1,5.5486627E0,1.7243639E1,3.1291132E0,7.3711886E0,-2.2053474E1,3.51092E1,-1.1574013E1],"split_indices":[2,2,4,3,4,2,3,2,2,4,1,3,0,2,2,0,4,3,3,3,1,0,2,1,0,2,0,0,0,3,0,0,1,0,4,0,2,0,0,3,3,0,1,3,3,0,0,3,0,0,4,0,0,4,0,1,1,0,2,0,3,0,0,0,0,0,0,0,0,0,0,0,0,0,0,0,0,0,0,0,0,0,0,0,0,0,0,0,0,0,0,0,0,0,0,0,0,0,0,0,0,0,0,0,0,0,0,0,0],"split_type":[0,0,0,0,0,0,0,0,0,0,0,0,0,0,0,0,0,0,0,0,0,0,0,0,0,0,0,0,0,0,0,0,0,0,0,0,0,0,0,0,0,0,0,0,0,0,0,0,0,0,0,0,0,0,0,0,0,0,0,0,0,0,0,0,0,0,0,0,0,0,0,0,0,0,0,0,0,0,0,0,0,0,0,0,0,0,0,0,0,0,0,0,0,0,0,0,0,0,0,0,0,0,0,0,0,0,0,0,0],"sum_hessian":[8.81E2,6.27E2,2.54E2,2.59E2,3.68E2,1.66E2,8.8E1,3.3E1,2.26E2,2.69E2,9.9E1,1.14E2,5.2E1,7.1E1,1.7E1,2.1E1,1.2E1,7E0,2.19E2,1.63E2,1.06E2,9.5E1,4E0,2.2E1,9.2E1,1E1,4.2E1,1E0,7E1,1E1,7E0,6E0,1.5E1,3E0,9E0,2E0,5E0,7.4E1,1.45E2,2.4E1,1.39E2,2.9E1,7.7E1,7.8E1,1.7E1,1E0,3E0,8E0,1.4E1,6.1E1,3.1E1,1E0,9E0,9E0,3.3E1,6E0,6.4E1,3E0,7E0,2E0,5E0,3E0,3E0,1E0,1.4E1,4E0,5E0,2E0,3E0,3.1E1,4.3E1,1.1E1,1.34E2,1.9E1,5E0,2E1,1.19E2,8E0,2.1E1,2E0,7.5E1,3.3E1,4.5E1,2E0,1.5E1,6E0,2E0,1E0,1.3E1,5.9E1,2E0,9E0,2.2E1,8E0,1E0,3E0,6E0,2.9E1,4E0,4E0,2E0,4.5E1,1.9E1,2E0,1E0,1E0,6E0,3E0,2E0],"tree_param":{"num_deleted":"0","num_feature":"6","num_nodes":"109","size_leaf_vector":"1"}},{"base_weights":[2.9835915E1,-1.862647E2,3.4936334E2,-6.3063074E2,-1.2470408E2,5.506328E3,2.9010565E2,-9.5757965E2,-2.5169867E2,2.5219904E2,-2.353347E2,-2.1039497E1,3.619389E2,-9.5855576E1,6.472212E2,-3.926899E2,-1.1162885E3,1.4185817E2,-8.075357E2,8.923098E2,-8.974808E1,-4.853216E2,-1.651018E1,-1.7284958E2,1.0397709E3,2.664555E3,5.642518E2,-7.400901E2,3.324829E1,-2.1860998E0,-3.465331E1,-4.31544E1,5.2081264E1,-9.162413E2,-4.1931043E0,1.4308403E2,3.2073362E3,-4.3240118E2,1.4459156E3,-1.6222078E2,-7.6353986E2,-3.0787082E2,1.7954707E2,7.84107E2,-2.3467009E2,9.9046326E1,-2.2108722E2,-2.1613688E1,3.3487996E3,4.3089447E2,1.984675E3,-7.899839E0,-2.9104666E1,1.9666437E1,-1.8004023E1,1.1650834E1,-2.3301912E1,-3.1930403E1,-1.1729094E1,4.9569256E1,-2.8382275E0,2.2671465E2,-6.8129625E0,4.6663103E0,-2.469627E1,-1.5480013E1,8.209839E1,-1.4756103E1,1.0922121E1,1.2053635E1,-2.4672392E1,-1.4576183E1,8.113333E0,4.8967598E1,2.5640965E0,9.004699E0,5.439817E1,2.1952505E1,-9.23643E0,6.51471E0,-3.0716398E1,1.311043E2,5.236776E1,6.031055E0,2.1874388E1,-1.1456894E1,8.6398926E1],"categories":[],"categories_nodes":[],"categories_segments":[],"categories_sizes":[],"default_left":[0,0,0,0,0,0,0,0,0,0,0,0,0,0,0,0,0,0,0,0,0,0,0,0,0,0,0,0,0,0,0,0,0,0,0,0,0,0,0,0,0,0,0,0,0,0,0,0,0,0,0,0,0,0,0,0,0,0,0,0,0,0,0,0,0,0,0,0,0,0,0,0,0,0,0,0,0,0,0,0,0,0,0,0,0,0,0],"id":7,"left_children":[1,3,5,7,9,11,13,15,17,19,21,-1,-1,23,25,27,29,31,33,35,37,39,41,43,45,47,49,51,53,-1,-1,55,-1,57,-1,59,61,63,65,67,69,71,73,75,77,-1,79,-1,81,83,85,-1,-1,-1,-1,-1,-1,-1,-1,-1,-1,-1,-1,-1,-1,-1,-1,-1,-1,-1,-1,-1,-1,-1,-1,-1,-1,-1,-1,-1,-1,-1,-1,-1,-1,-1,-1],"loss_changes":[6.110534E7,1.4365036E7,1.07498136E8,7.688028E6,1.944847E7,1.7130755E8,4.885484E7,2.609846E6,6.895913E6,2.3281788E7,1.968516E7,0E0,0E0,1.5131352E7,2.9293888E7,1.3563458E6,9.69024E5,5.678856E6,8.15605E5,6.3716756E7,3.745921E7,1.4978088E7,1.1080088E7,9.708692E6,3.2099456E7,1.8625892E7,3.286226E7,2.9296325E5,2.3641848E6,0E0,0E0,5.999542E6,0E0,4.39624E5,0E0,1.0559492E7,1.3616874E8,1.3454907E7,3.4331216E7,1.3884914E7,6.505032E6,8.1608185E6,1.5713806E7,4.436384E6,1.0979676E7,0E0,3.0368968E6,0E0,2.196064E6,1.1096594E7,3.288134E7,0E0,0E0,0E0,0E0,0E0,0E0,0E0,0E0,0E0,0E0,0E0,0E0,0E0,0E0,0E0,0E0,0E0,0E0,0E0,0E0,0E0,0E0,0E0,0E0,0E0,0E0,0E0,0E0,0E0,0E0,0E0,0E0,0E0,0E0,0E0,0E0],"parents":[2147483647,0,0,1,1,2,2,3,3,4,4,5,5,6,6,7,7,8,8,9,9,10,10,13,13,14,14,15,15,16,16,17,17,18,18,19,19,20,20,21,21,22,22,23,23,24,24,25,25,26,26,27,27,28,28,31,31,33,33,35,35,36,36,37,37,38,38,39,39,40,40,41,41,42,42,43,43,44,44,46,46,48,48,49,49,50,50],"right_children":[2,4,6,8,10,12,14,16,18,20,22,-1,-1,24,26,28,30,32,34,36,38,40,42,44,46,48,50,52,54,-1,-1,56,-1,58,-1,60,62,64,66,68,70,72,74,76,78,-1,80,-1,82,84,86,-1,-1,-1,-1,-1,-1,-1,-1,-1,-1,-1,-1,-1,-1,-1,-1,-1,-1,-1,-1,-1,-1,-1,-1,-1,-1,-1,-1,-1,-1,-1,-1,-1,-1,-1,-1],"split_conditions":[1.356602E3,9.7109674E2,7.052718E2,3.01742E2,1.5182E2,7.43046E2,1.8422985E3,2.1072E1,9.20946E2,1.1989281E3,1.528756E3,-2.1039497E1,3.619389E2,4.032186E3,1.9519751E3,4.7395938E2,1.086E1,1.099013E3,8.9725665E2,2.063894E3,1.2795E2,4E0,5.93712E2,1.439106E3,1.3821665E3,1.7997E2,3.0328577E3,2E0,7.052718E2,-2.1860998E0,-3.465331E1,8.5474835E2,5.2081264E1,2.1294E2,-4.1931043E0,1.0130443E3,3.536904E3,3.3064E1,4E0,7.58596E2,1.00321326E3,2.174158E3,6.356E2,1.412396E3,2.599E1,9.9046326E1,2.71959E3,-2.1613688E1,1.36328E3,3.356486E3,1.950202E3,-7.899839E0,-2.9104666E1,1.9666437E1,-1.8004023E1,1.1650834E1,-2.3301912E1,-3.1930403E1,-1.1729094E1,4.9569256E1,-2.8382275E0,2.2671465E2,-6.8129625E0,4.6663103E0,-2.469627E1,-1.5480013E1,8.209839E1,-1.4756103E1,1.0922121E1,1.2053635E1,-2.4672392E1,-1.4576183E1,8.113333E0,4.8967598E1,2.5640965E0,9.004699E0,5.439817E1,2.1952505E1,-9.23643E0,6.51471E0,-3.0716398E1,1.311043E2,5.236776E1,6.031055E0,2.1874388E1,-1.1456894E1,8.6398926E1],"split_indices":[1,3,3,0,1,0,3,0,0,3,3,0,0,0,3,3,1,1,3,0,1,4,1,1,3,0,3,4,3,0,0,3,0,1,0,3,0,1,4,1,3,0,1,1,0,0,1,0,0,1,1,0,0,0,0,0,0,0,0,0,0,0,0,0,0,0,0,0,0,0,0,0,0,0,0,0,0,0,0,0,0,0,0,0,0,0,0],"split_type":[0,0,0,0,0,0,0,0,0,0,0,0,0,0,0,0,0,0,0,0,0,0,0,0,0,0,0,0,0,0,0,0,0,0,0,0,0,0,0,0,0,0,0,0,0,0,0,0,0,0,0,0,0,0,0,0,0,0,0,0,0,0,0,0,0,0,0,0,0,0,0,0,0,0,0,0,0,0,0,0,0,0,0,0,0,0,0],"sum_hessian":[8.83E2,5.27E2,3.56E2,6.3E1,4.64E2,3E0,3.53E2,3.3E1,3E1,1.05E2,3.59E2,2E0,1E0,1.7E2,1.83E2,8E0,2.5E1,1.8E1,1.2E1,3.6E1,6.9E1,1.67E2,1.92E2,1.6E2,1E1,6E0,1.77E2,4E0,4E0,1E0,2.4E1,1.7E1,1E0,1E1,2E0,2.8E1,8E0,5.7E1,1.2E1,7.8E1,8.9E1,7.7E1,1.15E2,9E0,1.51E2,3E0,7E0,1E0,5E0,1.63E2,1.4E1,2E0,2E0,2E0,2E0,1.1E1,6E0,7E0,3E0,3E0,2.5E1,3E0,5E0,2.3E1,3.4E1,5E0,7E0,4.8E1,3E1,4E0,8.5E1,5.9E1,1.8E1,6E0,1.09E2,7E0,2E0,1E1,1.41E2,5E0,2E0,2E0,3E0,9.3E1,7E1,4E0,1E1],"tree_param":{"num_deleted":"0","num_feature":"6","num_nodes":"87","size_leaf_vector":"1"}},{"base_weights":[-6.21985E-1,-3.481207E2,3.10181E2,-3.6156345E2,7.825766E1,3.5650986E2,2.595176E2,-4.7996295E2,-1.4998053E2,3.8691545E3,2.1963156E2,-5.0236597E2,5.708278E2,7.4665656E2,-2.7020224E2,8.5438605E2,2.3892342E2,-1.8243295E2,4.1347043E2,-1.5260446E1,-5.279413E2,6.0267902E1,-6.504559E2,-4.1691083E2,1.9565474E3,3.394452E1,-5.206509E2,-2.2706616E0,3.5689213E1,-4.0535706E2,4.2010568E2,-6.0358307E1,5.7577704E2,1.8951675E1,-2.2574684E1,-1.6412167E1,1.1625049E0,-5.5137196E0,-2.2342422E1,3.5908386E1,-2.187667E1,1.476953E2,1.2168841E1,-2.6920303E1,1.0713985E1,-7.467411E0,-2.3349491E1,1.981537E1,-1.5206257E1,9.0327934E1,-6.0556903E0,4.348973E1,-8.903528E0,5.929936E1,1.5103356E1],"categories":[],"categories_nodes":[],"categories_segments":[],"categories_sizes":[],"default_left":[0,0,0,0,0,0,0,0,0,0,0,0,0,0,0,0,0,0,0,0,0,0,0,0,0,0,0,0,0,0,0,0,0,0,0,0,0,0,0,0,0,0,0,0,0,0,0,0,0,0,0,0,0,0,0],"id":8,"left_children":[1,3,5,7,-1,-1,9,11,13,15,17,19,21,23,25,27,-1,29,31,33,35,-1,37,39,41,43,45,-1,-1,47,49,51,53,-1,-1,-1,-1,-1,-1,-1,-1,-1,-1,-1,-1,-1,-1,-1,-1,-1,-1,-1,-1,-1,-1],"loss_changes":[9.4935176E7,1.7437884E7,2.6898314E8,1.0299256E7,0E0,0E0,6.581027E7,6.525096E6,1.6371034E7,5.492235E7,3.5847932E7,3.231004E6,1.1844706E7,2.6155916E7,1.0148702E7,1.3372895E6,0E0,2.031835E7,2.3875468E7,7.15301E6,2.698992E6,0E0,3.9132625E4,5.9131005E6,3.941204E7,1.8680336E7,4.917528E6,0E0,0E0,1.2237362E7,6.667497E7,2.8990794E7,2.241148E7,0E0,0E0,0E0,0E0,0E0,0E0,0E0,0E0,0E0,0E0,0E0,0E0,0E0,0E0,0E0,0E0,0E0,0E0,0E0,0E0,0E0,0E0],"parents":[2147483647,0,0,1,1,2,2,3,3,6,6,7,7,8,8,9,9,10,10,11,11,12,12,13,13,14,14,15,15,17,17,18,18,19,19,20,20,22,22,23,23,24,24,25,25,26,26,29,29,30,30,31,31,32,32],"right_children":[2,4,6,8,-1,-1,10,12,14,16,18,20,22,24,26,28,-1,30,32,34,36,-1,38,40,42,44,46,-1,-1,48,50,52,54,-1,-1,-1,-1,-1,-1,-1,-1,-1,-1,-1,-1,-1,-1,-1,-1,-1,-1,-1,-1,-1,-1],"split_conditions":[1.3763898E3,4.916442E3,7.052718E2,1.0295155E3,7.825766E1,3.5650986E2,1.3931036E3,2.71959E3,1.47392E2,7.6302E2,7.98968E2,1.6776E1,3.605685E3,8.14E1,8.51092E2,8.85E0,2.3892342E2,2.591863E3,5.90762E2,5E0,2.546643E3,6.0267902E1,3.876516E3,1.0430286E3,9.7112E1,7.06584E2,1.235728E3,-2.2706616E0,3.5689213E1,1.4457064E3,2.780118E3,1.252952E3,1.1112955E3,1.8951675E1,-2.2574684E1,-1.6412167E1,1.1625049E0,-5.5137196E0,-2.2342422E1,3.5908386E1,-2.187667E1,1.476953E2,1.2168841E1,-2.6920303E1,1.0713985E1,-7.467411E0,-2.3349491E1,1.981537E1,-1.5206257E1,9.0327934E1,-6.0556903E0,4.348973E1,-8.903528E0,5.929936E1,1.5103356E1],"split_indices":[2,0,3,2,0,0,2,0,1,0,1,1,0,1,0,0,0,2,0,4,1,0,0,2,1,1,2,0,0,2,2,1,3,0,0,0,0,0,0,0,0,0,0,0,0,0,0,0,0,0,0,0,0,0,0],"split_type":[0,0,0,0,0,0,0,0,0,0,0,0,0,0,0,0,0,0,0,0,0,0,0,0,0,0,0,0,0,0,0,0,0,0,0,0,0,0,0,0,0,0,0,0,0,0,0,0,0,0,0,0,0,0,0],"sum_hessian":[8.77E2,4.14E2,4.63E2,4.13E2,1E0,1E0,4.62E2,2.64E2,1.49E2,4E0,4.58E2,2.59E2,5E0,1.7E1,1.32E2,3E0,1E0,1.49E2,3.09E2,1.3E1,2.46E2,2E0,3E0,9E0,8E0,6E1,7.2E1,1E0,2E0,1.09E2,4E1,7.9E1,2.3E2,7E0,6E0,2.38E2,8E0,1E0,2E0,1E0,8E0,2E0,6E0,1.5E1,4.5E1,3.6E1,3.6E1,9E0,1E2,7E0,3.3E1,1E1,6.9E1,1E1,2.2E2],"tree_param":{"num_deleted":"0","num_feature":"6","num_nodes":"55","size_leaf_vector":"1"}},{"base_weights":[2.2154411E1,-4.464204E2,2.2925264E2,-8.086751E2,-3.9187735E2,7.4117944E3,1.9307841E2,-1.00912506E3,-3.570899E2,-3.534382E0,-5.412191E2,-1.7631432E1,3.5116217E2,-1.2141508E2,3.7844376E2,-7.035915E2,-3.3755104E1,2.6455185E1,-5.498871E2,6.489744E1,-1.0504708E2,7.2687506E2,-5.607584E2,-3.642034E2,3.961964E2,2.5662117E3,3.4826434E2,-8.160974E2,2.9468427E0,2.9778616E2,-7.7134625E2,-5.833339E2,2.1650433E2,2.7783684E1,4.9256945E0,-5.7722864E2,5.320224E2,-2.0045105E2,-9.1055554E2,3.086084E3,2.3451892E2,7.011665E2,1.5039589E2,8.519522E1,5.568016E2,-2.728403E1,-2.4375823E0,1.4340114E1,-9.397357E-1,-2.8003117E1,-4.0805545E0,1.1801691E1,-2.8916527E1,3.6310287E1,-6.514763E0,-1.8028915E1,-2.9713287E0,3.5642338E1,-1.1701332E1,-8.055222E0,7.561689E1,-6.4017856E-1,-3.174141E1,9.055422E0,1.7158191E2,-6.344675E0,4.5298737E1,4.032312E0,2.535845E1,-4.0133543E0,2.6571966E1,2.2407766E1,5.302339E0],"categories":[],"categories_nodes":[],"categories_segments":[],"categories_sizes":[],"default_left":[0,0,0,0,0,0,0,0,0,0,0,0,0,0,0,0,0,0,0,0,0,0,0,0,0,0,0,0,0,0,0,0,0,0,0,0,0,0,0,0,0,0,0,0,0,0,0,0,0,0,0,0,0,0,0,0,0,0,0,0,0,0,0,0,0,0,0,0,0,0,0,0,0],"id":9,"left_children":[1,3,5,7,9,11,13,15,17,19,21,-1,-1,23,25,27,-1,-1,29,-1,31,33,35,37,39,41,43,45,-1,47,49,51,53,-1,-1,55,57,59,61,63,65,67,-1,69,71,-1,-1,-1,-1,-1,-1,-1,-1,-1,-1,-1,-1,-1,-1,-1,-1,-1,-1,-1,-1,-1,-1,-1,-1,-1,-1,-1,-1],"loss_changes":[8.452803E7,4.958612E6,1.5550194E8,2.71734E6,1.3569112E7,1.0991978E8,3.5140256E7,2.3818E4,3.3512575E6,1.4744336E7,4.595028E6,0E0,0E0,2.829438E7,2.4129976E7,8.92049E5,0E0,0E0,2.2946718E6,0E0,9.969099E6,1.8428138E5,3.31282E6,1.3505844E7,3.0588644E7,1.93036E7,2.0524948E7,4.750045E5,0E0,1.9290788E5,7.998635E5,1.0043185E7,1.707149E7,0E0,0E0,1.813196E6,2.2781845E6,2.2713478E7,4.567734E6,2.760068E7,3.9570412E7,2.13098E5,0E0,2.9393016E7,1.4969892E7,0E0,0E0,0E0,0E0,0E0,0E0,0E0,0E0,0E0,0E0,0E0,0E0,0E0,0E0,0E0,0E0,0E0,0E0,0E0,0E0,0E0,0E0,0E0,0E0,0E0,0E0,0E0,0E0],"parents":[2147483647,0,0,1,1,2,2,3,3,4,4,5,5,6,6,7,7,8,8,9,9,10,10,13,13,14,14,15,15,18,18,20,20,21,21,22,22,23,23,24,24,25,25,26,26,27,27,29,29,30,30,31,31,32,32,35,35,36,36,37,37,38,38,39,39,40,40,41,41,43,43,44,44],"right_children":[2,4,6,8,10,12,14,16,18,20,22,-1,-1,24,26,28,-1,-1,30,-1,32,34,36,38,40,42,44,46,-1,48,50,52,54,-1,-1,56,58,60,62,64,66,68,-1,70,72,-1,-1,-1,-1,-1,-1,-1,-1,-1,-1,-1,-1,-1,-1,-1,-1,-1,-1,-1,-1,-1,-1,-1,-1,-1,-1,-1,-1],"split_conditions":[1.0481503E3,8.027413E2,7.052718E2,5.9955316E2,1.0808643E3,2.12637E3,1.528756E3,4.9616E1,1.086E1,4.3461285E2,4.2968915E2,-1.7631432E1,3.5116217E2,1.7682216E3,1.5392704E3,4.7395938E2,-3.3755104E1,2.6455185E1,6.847969E2,6.489744E1,3.2411E2,1.87432E2,3.356486E3,1.038472E3,1.103962E3,2.276403E3,2.0992847E3,2.599E1,2.9468427E0,3.9448E2,7.43046E2,8.5474835E2,7.771E2,2.7783684E1,4.9256945E0,2.163372E3,3.605685E3,1.018092E3,1.1083203E3,2.760168E3,6E0,1.31197E3,1.5039589E2,7E0,5E0,-2.728403E1,-2.4375823E0,1.4340114E1,-9.397357E-1,-2.8003117E1,-4.0805545E0,1.1801691E1,-2.8916527E1,3.6310287E1,-6.514763E0,-1.8028915E1,-2.9713287E0,3.5642338E1,-1.1701332E1,-8.055222E0,7.561689E1,-6.4017856E-1,-3.174141E1,9.055422E0,1.7158191E2,-6.344675E0,4.5298737E1,4.032312E0,2.535845E1,-4.0133543E0,2.6571966E1,2.2407766E1,5.302339E0],"split_indices":[2,3,3,2,3,0,3,0,0,2,2,0,0,0,3,3,0,0,2,0,0,0,0,0,2,2,2,0,0,0,0,3,0,0,0,3,0,0,3,0,4,0,0,4,4,0,0,0,0,0,0,0,0,0,0,0,0,0,0,0,0,0,0,0,0,0,0,0,0,0,0,0,0],"split_type":[0,0,0,0,0,0,0,0,0,0,0,0,0,0,0,0,0,0,0,0,0,0,0,0,0,0,0,0,0,0,0,0,0,0,0,0,0,0,0,0,0,0,0,0,0,0,0,0,0,0,0,0,0,0,0,0,0,0,0,0,0,0,0,0,0,0,0,0,0,0,0,0,0],"sum_hessian":[8.69E2,2.66E2,6.03E2,3.3E1,2.33E2,2E0,6.01E2,2.2E1,1.1E1,6.5E1,1.68E2,1E0,1E0,2.23E2,3.78E2,8E0,1.4E1,1E0,1E1,2E0,6.3E1,2E0,1.66E2,1.52E2,7.1E1,4E0,3.74E2,7E0,1E0,2E0,8E0,2.5E1,3.8E1,1E0,1E0,1.64E2,2E0,1.18E2,3.4E1,3E0,6.8E1,3E0,1E0,1.66E2,2.08E2,6E0,1E0,1E0,1E0,6E0,2E0,7E0,1.8E1,1.1E1,2.7E1,1.56E2,8E0,1E0,1E0,1.16E2,2E0,5E0,2.9E1,2E0,1E0,5.1E1,1.7E1,1E0,2E0,1.31E2,3.5E1,1.38E2,7E1],"tree_param":{"num_deleted":"0","num_feature":"6","num_nodes":"73","size_leaf_vector":"1"}},{"base_weights":[-8.070398E0,-2.4456772E2,3.7034906E2,-5.317132E2,-1.456569E2,5.2652617E3,3.1115024E2,-6.0940265E2,2.6815402E2,2.479048E2,-2.5064336E2,-1.9986057E1,3.4589478E2,-5.4172432E1,6.5368915E2,7.929953E1,-6.689439E2,-4.7477176E2,7.918291E2,2.0894245E1,1.7938046E3,8.460182E2,-2.9967783E2,-1.0423548E2,1.2815272E3,-4.646701E1,8.1179803E2,-2.1797504E1,6.4360175E2,-7.843336E2,-3.7619275E2,-2.7952316E1,2.9278165E2,1.78141E2,4.0829456E1,9.5836646E2,-5.4593054E2,4.8105347E2,1.1912567E2,-2.7836E2,2.0101621E3,-4.2498895E2,-5.4103026E0,1.2298157E3,-1.5553465E2,9.716178E1,-5.0675375E2,6.338508E2,-4.1543735E2,3.3653884E3,7.3247314E2,-2.894313E1,4.4397152E1,-1.2627918E1,-2.5374283E1,1.876595E1,-1.5768779E1,1.6358934E1,-3.183761E0,-9.100224E0,1.1230399E1,2.0982338E-1,1.0364534E2,2.402813E0,-2.6754534E1,1.1109122E2,-1.5247086E1,1.7658898E0,-1.2017344E1,1.4153618E2,2.3176947E1,-5.277457E0,-1.5791967E1,7.306941E1,-2.574758E0,1.2231406E1,8.010489E1,-2.3239075E1,-1.0584091E0,-7.973236E-1,-1.97386E1,-2.2291483E1,6.403778E1,-3.561559E1,-3.558536E0,1.2395982E2,1.5983554E1,4.363046E1,1.4546161E1],"categories":[],"categories_nodes":[],"categories_segments":[],"categories_sizes":[],"default_left":[0,0,0,0,0,0,0,0,0,0,0,0,0,0,0,0,0,0,0,0,0,0,0,0,0,0,0,0,0,0,0,0,0,0,0,0,0,0,0,0,0,0,0,0,0,0,0,0,0,0,0,0,0,0,0,0,0,0,0,0,0,0,0,0,0,0,0,0,0,0,0,0,0,0,0,0,0,0,0,0,0,0,0,0,0,0,0,0,0],"id":10,"left_children":[1,3,5,7,9,11,13,15,17,19,21,-1,-1,23,25,27,29,31,33,35,37,39,41,43,45,47,49,-1,51,53,55,-1,57,59,-1,61,63,65,-1,67,69,71,73,75,77,-1,79,81,83,85,87,-1,-1,-1,-1,-1,-1,-1,-1,-1,-1,-1,-1,-1,-1,-1,-1,-1,-1,-1,-1,-1,-1,-1,-1,-1,-1,-1,-1,-1,-1,-1,-1,-1,-1,-1,-1,-1,-1],"loss_changes":[7.9114824E7,1.5373126E7,9.6884536E7,8.801048E6,1.6837504E7,1.5631333E8,4.220665E7,5.260828E6,5.433611E6,3.014298E7,1.7515058E7,0E0,0E0,1.110013E7,1.9299688E7,5.470008E6,3.657256E6,2.3773005E6,2.551812E6,4.0908268E7,2.9526996E7,1.888468E7,1.1355202E7,1.1072556E7,2.2641366E7,8.546889E6,2.629892E7,0E0,1.0843384E7,1.498232E6,5.5679765E6,0E0,3.6006138E5,5.8590175E5,0E0,6.885317E7,1.0465053E7,2.7381846E7,0E0,3.5329738E5,1.9812524E7,5.363248E6,1.8464712E7,6.016015E6,1.1437911E7,0E0,2.729232E5,2.6382574E7,4.89872E6,6.484496E6,2.4139296E7,0E0,0E0,0E0,0E0,0E0,0E0,0E0,0E0,0E0,0E0,0E0,0E0,0E0,0E0,0E0,0E0,0E0,0E0,0E0,0E0,0E0,0E0,0E0,0E0,0E0,0E0,0E0,0E0,0E0,0E0,0E0,0E0,0E0,0E0,0E0,0E0,0E0,0E0],"parents":[2147483647,0,0,1,1,2,2,3,3,4,4,5,5,6,6,7,7,8,8,9,9,10,10,13,13,14,14,15,15,16,16,17,17,18,18,19,19,20,20,21,21,22,22,23,23,24,24,25,25,26,26,28,28,29,29,30,30,32,32,33,33,35,35,36,36,37,37,39,39,40,40,41,41,42,42,43,43,44,44,46,46,47,47,48,48,49,49,50,50],"right_children":[2,4,6,8,10,12,14,16,18,20,22,-1,-1,24,26,28,30,32,34,36,38,40,42,44,46,48,50,-1,52,54,56,-1,58,60,-1,62,64,66,-1,68,70,72,74,76,78,-1,80,82,84,86,88,-1,-1,-1,-1,-1,-1,-1,-1,-1,-1,-1,-1,-1,-1,-1,-1,-1,-1,-1,-1,-1,-1,-1,-1,-1,-1,-1,-1,-1,-1,-1,-1,-1,-1,-1,-1,-1,-1],"split_conditions":[1.412396E3,8.110554E2,7.052718E2,1.391412E3,1.47392E2,7.43046E2,1.8422985E3,1.6776E1,5.9955316E2,1.2795E2,4.668E1,-1.9986057E1,3.4589478E2,5.1484473E3,4.18666E2,4.7395938E2,6.4398E2,5.2392E2,1.1350642E3,1.193219E3,2.0398119E3,2.232E1,1.8978358E3,2.1072E1,6.402018E3,1.9929858E3,1.9242034E3,-2.1797504E1,4.98E0,4.3286E1,4.2968915E2,-2.7952316E1,1.522652E3,1.533198E3,4.0829456E1,2.063894E3,3.3064E1,1.31154E2,1.1912567E2,1.57844E2,3.136E1,7.05562E2,1.9071512E3,1.6776E1,1.42182E2,9.716178E1,1.511444E3,1.70248E3,2.174158E3,2.691348E3,9.5949E2,-2.894313E1,4.4397152E1,-1.2627918E1,-2.5374283E1,1.876595E1,-1.5768779E1,1.6358934E1,-3.183761E0,-9.100224E0,1.1230399E1,2.0982338E-1,1.0364534E2,2.402813E0,-2.6754534E1,1.1109122E2,-1.5247086E1,1.7658898E0,-1.2017344E1,1.4153618E2,2.3176947E1,-5.277457E0,-1.5791967E1,7.306941E1,-2.574758E0,1.2231406E1,8.010489E1,-2.3239075E1,-1.0584091E0,-7.973236E-1,-1.97386E1,-2.2291483E1,6.403778E1,-3.561559E1,-3.558536E0,1.2395982E2,1.5983554E1,4.363046E1,1.4546161E1],"split_indices":[1,2,3,0,1,0,3,1,2,1,0,0,0,0,0,3,1,1,3,3,3,0,2,0,0,1,3,0,1,0,2,0,0,0,0,0,1,1,0,1,0,0,2,0,0,0,1,1,1,2,0,0,0,0,0,0,0,0,0,0,0,0,0,0,0,0,0,0,0,0,0,0,0,0,0,0,0,0,0,0,0,0,0,0,0,0,0,0,0],"split_type":[0,0,0,0,0,0,0,0,0,0,0,0,0,0,0,0,0,0,0,0,0,0,0,0,0,0,0,0,0,0,0,0,0,0,0,0,0,0,0,0,0,0,0,0,0,0,0,0,0,0,0,0,0,0,0,0,0,0,0,0,0,0,0,0,0,0,0,0,0,0,0,0,0,0,0,0,0,0,0,0,0,0,0,0,0,0,0,0,0],"sum_hessian":[8.82E2,5.43E2,3.39E2,1.38E2,4.05E2,3E0,3.36E2,1.26E2,1.2E1,8.5E1,3.2E2,2E0,1E0,1.63E2,1.73E2,1E1,1.16E2,5E0,7E0,7.5E1,1E1,1.3E1,3.07E2,1.58E2,5E0,3.2E1,1.41E2,4E0,6E0,8.2E1,3.4E1,3E0,2E0,4E0,3E0,2.8E1,4.7E1,7E0,3E0,7E0,6E0,2.15E2,9.2E1,5E0,1.53E2,2E0,3E0,1.1E1,2.1E1,3E0,1.38E2,2E0,4E0,1.3E1,6.9E1,4E0,3E1,1E0,1E0,1E0,3E0,2.1E1,7E0,1.7E1,3E1,1E0,6E0,2E0,5E0,1E0,5E0,6.3E1,1.52E2,2E0,9E1,4E0,1E0,2.4E1,1.29E2,1E0,2E0,6E0,5E0,5E0,1.6E1,2E0,1E0,3.4E1,1.04E2],"tree_param":{"num_deleted":"0","num_feature":"6","num_nodes":"89","size_leaf_vector":"1"}},{"base_weights":[-1.5270108E0,-4.4743057E2,1.8729457E2,-4.7047357E2,4.526198E2,7.190584E3,1.5265868E2,-9.8065845E2,-4.32055E2,1.4187198E3,-6.2663513E2,-1.713008E1,3.4070636E2,7.6645546E0,4.4260938E2,-4.9627692E2,-3.1470182E1,-2.5582968E2,-5.3189453E2,5.825067E1,-2.2528217E0,-5.501748E0,-2.1397573E1,4.139632E2,-1.0826284E2,2.795612E3,3.448092E2,1.1054218E1,-2.7220556E1,-5.4805524E2,1.6178004E2,-3.5519452E2,-6.3827527E2,7.63746E1,2.4336196E3,-3.7267548E2,1.2276489E2,4.133469E3,-2.4359184E1,-8.3281845E1,4.8710477E2,-2.5637981E1,-9.384857E0,6.0416855E1,1.6317258E0,1.9732292E1,-1.3224649E1,-2.2617186E1,-8.232712E0,1.5739955E1,-1.7953438E1,1.1197839E2,-1.1738786E1,-1.5241738E1,1.4301189E1,1.7182526E1,-5.6175766E0,4.427125E1,1.8897981E2,3.2802658E1,-8.057758E0,2.4663435E1,2.4265714E0],"categories":[],"categories_nodes":[],"categories_segments":[],"categories_sizes":[],"default_left":[0,0,0,0,0,0,0,0,0,0,0,0,0,0,0,0,0,0,0,0,0,0,0,0,0,0,0,0,0,0,0,0,0,0,0,0,0,0,0,0,0,0,0,0,0,0,0,0,0,0,0,0,0,0,0,0,0,0,0,0,0,0,0],"id":11,"left_children":[1,3,5,7,9,11,13,15,17,19,21,-1,-1,23,25,27,-1,29,31,-1,-1,-1,-1,33,35,37,39,-1,-1,41,43,45,47,49,51,53,55,57,-1,59,61,-1,-1,-1,-1,-1,-1,-1,-1,-1,-1,-1,-1,-1,-1,-1,-1,-1,-1,-1,-1,-1,-1],"loss_changes":[7.3587096E7,5.605308E6,1.4783731E8,4.554848E6,8.187697E6,1.0349598E8,2.5725788E7,4.2211E4,4.05136E6,3.2706855E6,2.276575E4,0E0,0E0,1.9309186E7,4.5981348E7,1.7562451E6,0E0,1.0827854E7,2.611704E6,0E0,0E0,0E0,0E0,6.185911E7,1.9532392E7,4.1967732E7,1.2040912E7,0E0,0E0,3.48224E6,7.2496565E6,5.407311E6,3.705852E6,2.4212792E7,4.916461E7,1.7375916E7,2.3962348E7,2.5242024E7,0E0,1.1196442E7,2.0074428E7,0E0,0E0,0E0,0E0,0E0,0E0,0E0,0E0,0E0,0E0,0E0,0E0,0E0,0E0,0E0,0E0,0E0,0E0,0E0,0E0,0E0,0E0],"parents":[2147483647,0,0,1,1,2,2,3,3,4,4,5,5,6,6,7,7,8,8,9,9,10,10,13,13,14,14,15,15,17,17,18,18,23,23,24,24,25,25,26,26,29,29,30,30,31,31,32,32,33,33,34,34,35,35,36,36,37,37,39,39,40,40],"right_children":[2,4,6,8,10,12,14,16,18,20,22,-1,-1,24,26,28,-1,30,32,-1,-1,-1,-1,34,36,38,40,-1,-1,42,44,46,48,50,52,54,56,58,-1,60,62,-1,-1,-1,-1,-1,-1,-1,-1,-1,-1,-1,-1,-1,-1,-1,-1,-1,-1,-1,-1,-1,-1],"split_conditions":[1.0295155E3,2.71959E3,7.052718E2,3.995177E2,3.605685E3,2.12637E3,2.314191E3,2E0,1.0914939E3,7.4039514E2,3.876516E3,-1.713008E1,3.4070636E2,1.193219E3,2.349748E3,1.14794E2,-3.1470182E1,9.7109674E2,2.52361E2,5.825067E1,-2.2528217E0,-5.501748E0,-2.1397573E1,1.179872E3,1.6744883E3,2.013993E3,9.8317E2,1.1054218E1,-2.7220556E1,3.01742E2,4.3461285E2,1.1164861E3,1.469352E3,1.1247083E3,1.4457064E3,3.406855E3,7.9276E2,1.7532412E3,-2.4359184E1,1.29568E2,3.43676E3,-2.5637981E1,-9.384857E0,6.0416855E1,1.6317258E0,1.9732292E1,-1.3224649E1,-2.2617186E1,-8.232712E0,1.5739955E1,-1.7953438E1,1.1197839E2,-1.1738786E1,-1.5241738E1,1.4301189E1,1.7182526E1,-5.6175766E0,4.427125E1,1.8897981E2,3.2802658E1,-8.057758E0,2.4663435E1,2.4265714E0],"split_indices":[2,0,3,2,0,0,2,4,3,2,0,0,0,3,2,2,0,3,0,0,0,0,0,3,3,0,0,0,0,0,2,3,0,3,2,0,0,3,0,0,0,0,0,0,0,0,0,0,0,0,0,0,0,0,0,0,0,0,0,0,0,0,0],"split_type":[0,0,0,0,0,0,0,0,0,0,0,0,0,0,0,0,0,0,0,0,0,0,0,0,0,0,0,0,0,0,0,0,0,0,0,0,0,0,0,0,0,0,0,0,0,0,0,0,0,0,0,0,0,0,0,0,0,0,0,0,0,0,0],"sum_hessian":[8.72E2,2.59E2,6.13E2,2.53E2,6E0,2E0,6.11E2,1.6E1,2.37E2,3E0,3E0,1E0,1E0,4.08E2,2.03E2,3E0,1.3E1,8.7E1,1.5E2,2E0,1E0,1E0,2E0,9E1,3.18E2,7E0,1.96E2,1E0,2E0,5.1E1,3.6E1,5.8E1,9.2E1,7.8E1,1.2E1,1.48E2,1.7E2,5E0,2E0,4.9E1,1.47E2,2.1E1,3E1,1E0,3.5E1,4E0,5.4E1,6.9E1,2.3E1,4.7E1,3.1E1,8E0,4E0,1.28E2,2E1,6.9E1,1.01E2,3E0,2E0,6E0,4.3E1,8E1,6.7E1],"tree_param":{"num_deleted":"0","num_feature":"6","num_nodes":"63","size_leaf_vector":"1"}},{"base_weights":[-1.5029843E1,-3.625777E2,2.138395E2,-4.0901E2,2.0287949E2,9.277813E3,1.6163805E2,-2.905798E2,-4.9673013E2,7.4440704E2,-5.360639E2,8.1905846E1,3.3559576E2,-4.575048E1,4.8819424E2,-5.1012042E2,2.481518E1,-2.836097E2,-6.388155E2,1.0418156E2,1.7940859E3,2.3676865E1,-7.282931E2,-1.7965616E2,5.419653E2,3.1377405E3,3.920578E2,-5.491405E2,7.0045605E2,5.9510605E1,-4.4352516E1,-7.091567E2,6.763331E1,-8.2402167E2,-4.7383008E2,-2.442402E2,2.324939E1,1.7272783E1,6.777928E1,-9.029133E2,3.833199E1,3.535623E2,-3.3560446E2,3.2029822E2,1.9427639E3,4.870277E3,-2.3872004E1,4.576925E2,-1.037126E3,-8.161621E-1,-1.89586E1,5.200699E1,-2.0486465E1,-1.183418E1,4.232652E0,-5.425978E0,-2.67632E1,-5.247222E0,3.3608845E1,-2.7912996E1,3.3420517E0,3.583278E1,-1.5670503E1,6.0023375E0,-2.2157333E1,-1.1742389E1,-2.9794205E1,3.943969E0,-2.2190294E0,-5.966483E-1,6.668412E1,-1.2876031E1,2.5367904E0,2.4402315E1,-1.6020227E1,7.254816E1,-2.0786901E1,1.8520023E2,5.8313614E1,-1.0824428E0,1.7082678E1,-3.3717766E1,-5.140937E0],"categories":[],"categories_nodes":[],"categories_segments":[],"categories_sizes":[],"default_left":[0,0,0,0,0,0,0,0,0,0,0,0,0,0,0,0,0,0,0,0,0,0,0,0,0,0,0,0,0,0,0,0,0,0,0,0,0,0,0,0,0,0,0,0,0,0,0,0,0,0,0,0,0,0,0,0,0,0,0,0,0,0,0,0,0,0,0,0,0,0,0,0,0,0,0,0,0,0,0,0,0,0,0],"id":12,"left_children":[1,3,5,7,9,11,13,15,17,19,21,-1,-1,23,25,27,29,31,33,35,37,-1,39,41,43,45,47,49,51,-1,53,55,57,59,61,63,-1,-1,-1,65,67,69,71,73,75,77,-1,79,81,-1,-1,-1,-1,-1,-1,-1,-1,-1,-1,-1,-1,-1,-1,-1,-1,-1,-1,-1,-1,-1,-1,-1,-1,-1,-1,-1,-1,-1,-1,-1,-1,-1,-1],"loss_changes":[6.9518616E7,9.193632E6,2.4785178E8,3.190436E6,1.1203322E7,6.951168E6,3.5577436E7,9.637297E6,5.360304E6,1.0565588E7,3.63191E6,0E0,0E0,2.543828E7,5.0732296E7,4.25807E6,7.946439E6,1.1258242E7,2.940192E6,2.7602085E6,2.099944E6,0E0,1.5071615E6,2.1988292E7,1.800839E7,5.157964E7,1.9047888E7,3.44064E6,5.471244E6,0E0,3.7564718E6,3.124776E6,1.0919105E7,5.080644E6,5.480539E6,1.9049185E6,0E0,0E0,0E0,2.66315E4,4.110083E4,4.1928364E7,8.058784E6,2.2761608E7,1.170184E7,7.06736E6,0E0,1.050274E7,4.83729E5,0E0,0E0,0E0,0E0,0E0,0E0,0E0,0E0,0E0,0E0,0E0,0E0,0E0,0E0,0E0,0E0,0E0,0E0,0E0,0E0,0E0,0E0,0E0,0E0,0E0,0E0,0E0,0E0,0E0,0E0,0E0,0E0,0E0,0E0],"parents":[2147483647,0,0,1,1,2,2,3,3,4,4,5,5,6,6,7,7,8,8,9,9,10,10,13,13,14,14,15,15,16,16,17,17,18,18,19,19,20,20,22,22,23,23,24,24,25,25,26,26,27,27,28,28,30,30,31,31,32,32,33,33,34,34,35,35,39,39,40,40,41,41,42,42,43,43,44,44,45,45,47,47,48,48],"right_children":[2,4,6,8,10,12,14,16,18,20,22,-1,-1,24,26,28,30,32,34,36,38,-1,40,42,44,46,48,50,52,-1,54,56,58,60,62,64,-1,-1,-1,66,68,70,72,74,76,78,-1,80,82,-1,-1,-1,-1,-1,-1,-1,-1,-1,-1,-1,-1,-1,-1,-1,-1,-1,-1,-1,-1,-1,-1,-1,-1,-1,-1,-1,-1,-1,-1,-1,-1,-1,-1],"split_conditions":[1.2179774E3,1.9936831E3,1.00321326E3,1.1083203E3,2.20999E3,2.637087E3,2.314191E3,9.7109674E2,4.32926E2,9.802684E2,3.5208E1,8.1905846E1,3.3559576E2,7E0,2.349748E3,2.679652E3,4.3461285E2,1.2222E2,1.2792358E3,2.163372E3,3.78594E2,2.3676865E1,1.855228E3,1.2431466E3,3.536904E3,2.013993E3,4.4068286E3,2.1072E1,2.859974E3,5.9510605E1,3.01742E2,4.3286E1,1.0481503E3,7E0,1.2947932E3,2.111713E3,2.324939E1,1.7272783E1,6.777928E1,2.06724E2,2.13509E3,6E0,2.0992847E3,9.5949E2,6.402018E3,1.36328E3,-2.3872004E1,8.2297E2,1.8422985E3,-8.161621E-1,-1.89586E1,5.200699E1,-2.0486465E1,-1.183418E1,4.232652E0,-5.425978E0,-2.67632E1,-5.247222E0,3.3608845E1,-2.7912996E1,3.3420517E0,3.583278E1,-1.5670503E1,6.0023375E0,-2.2157333E1,-1.1742389E1,-2.9794205E1,3.943969E0,-2.2190294E0,-5.966483E-1,6.668412E1,-1.2876031E1,2.5367904E0,2.4402315E1,-1.6020227E1,7.254816E1,-2.0786901E1,1.8520023E2,5.8313614E1,-1.0824428E0,1.7082678E1,-3.3717766E1,-5.140937E0],"split_indices":[2,3,3,3,3,0,2,3,0,2,0,0,0,4,2,0,2,0,3,3,0,0,0,3,0,0,2,0,0,0,0,0,2,4,3,3,0,0,0,0,0,4,2,0,0,0,0,0,3,0,0,0,0,0,0,0,0,0,0,0,0,0,0,0,0,0,0,0,0,0,0,0,0,0,0,0,0,0,0,0,0,0,0],"split_type":[0,0,0,0,0,0,0,0,0,0,0,0,0,0,0,0,0,0,0,0,0,0,0,0,0,0,0,0,0,0,0,0,0,0,0,0,0,0,0,0,0,0,0,0,0,0,0,0,0,0,0,0,0,0,0,0,0,0,0,0,0,0,0,0,0,0,0,0,0,0,0,0,0,0,0,0,0,0,0,0,0,0,0],"sum_hessian":[8.72E2,3.46E2,5.26E2,3.2E2,2.6E1,2E0,5.24E2,1.38E2,1.82E2,1.5E1,1.1E1,1E0,1E0,3.21E2,2.03E2,8.1E1,5.7E1,7.4E1,1.08E2,1E1,5E0,1E0,1E1,2.62E2,5.9E1,6E0,1.97E2,7.9E1,2E0,1E0,5.6E1,3.3E1,4.1E1,4.9E1,5.9E1,7E0,3E0,2E0,3E0,8E0,2E0,5.9E1,2.03E2,5.2E1,7E0,4E0,2E0,1.89E2,8E0,1.1E1,6.8E1,1E0,1E0,1.9E1,3.7E1,9E0,2.4E1,3.4E1,7E0,4.4E1,5E0,1E0,5.8E1,4E0,3E0,2E0,6E0,1E0,1E0,5E1,9E0,1.66E2,3.7E1,3.3E1,1.9E1,6E0,1E0,2E0,2E0,3.5E1,1.54E2,7E0,1E0],"tree_param":{"num_deleted":"0","num_feature":"6","num_nodes":"83","size_leaf_vector":"1"}},{"base_weights":[3.679181E1,-2.8918143E2,3.2584955E2,-3.0172278E2,7.37321E1,3.3056183E2,2.794572E2,-7.09808E2,-2.6226807E2,3.7807405E3,2.411256E2,-9.3844476E2,-2.3310867E2,2.020131E1,-3.5128162E2,8.145803E2,2.3468071E2,-4.5507416E1,4.721705E2,-5.0936847E2,-3.0736523E1,-2.5456497E1,1.3470412E2,6.2052025E1,-4.829647E1,-1.07515465E2,-5.164742E2,-3.1718755E0,3.4697796E1,-2.407504E2,4.8873694E2,-2.3294556E2,5.880851E2,1.0900647E1,-2.2697523E1,2.4867151E1,-1.759313E1,-1.5820327E1,8.88249E0,-9.43409E0,1.4503071E1,-2.136107E1,-1.0037351E1,2.081343E1,-1.01960125E1,3.2593708E1,-1.4531892E1,-1.3913293E1,1.9853651E1,8.347285E1,1.6353727E1],"categories":[],"categories_nodes":[],"categories_segments":[],"categories_sizes":[],"default_left":[0,0,0,0,0,0,0,0,0,0,0,0,0,0,0,0,0,0,0,0,0,0,0,0,0,0,0,0,0,0,0,0,0,0,0,0,0,0,0,0,0,0,0,0,0,0,0,0,0,0,0],"id":13,"left_children":[1,3,5,7,-1,-1,9,11,13,15,17,19,21,23,25,27,-1,29,31,33,-1,-1,35,-1,37,39,41,-1,-1,43,45,47,49,-1,-1,-1,-1,-1,-1,-1,-1,-1,-1,-1,-1,-1,-1,-1,-1,-1,-1],"loss_changes":[8.338921E7,1.5072764E7,2.2957638E8,6.495704E6,0E0,0E0,6.1898584E7,3.704918E6,9.561666E6,5.3573144E7,3.074993E7,3.6483E5,3.0570765E6,1.3007231E7,1.1582028E7,1.3813168E6,0E0,2.1813618E7,2.1142436E7,1.5694138E6,0E0,0E0,4.991657E6,0E0,1.5003819E7,1.4583406E7,5.88012E6,0E0,0E0,1.4407828E7,3.3099302E7,7.9486135E6,1.9317064E7,0E0,0E0,0E0,0E0,0E0,0E0,0E0,0E0,0E0,0E0,0E0,0E0,0E0,0E0,0E0,0E0,0E0,0E0],"parents":[2147483647,0,0,1,1,2,2,3,3,6,6,7,7,8,8,9,9,10,10,11,11,12,12,13,13,14,14,15,15,17,17,18,18,19,19,22,22,24,24,25,25,26,26,29,29,30,30,31,31,32,32],"right_children":[2,4,6,8,-1,-1,10,12,14,16,18,20,22,24,26,28,-1,30,32,34,-1,-1,36,-1,38,40,42,-1,-1,44,46,48,50,-1,-1,-1,-1,-1,-1,-1,-1,-1,-1,-1,-1,-1,-1,-1,-1,-1,-1],"split_conditions":[1.3763898E3,4.916442E3,7.052718E2,8.027413E2,7.37321E1,3.3056183E2,1.3931036E3,5.9955316E2,1.0835186E3,7.6302E2,2.0992847E3,2.1072E1,3E0,4.3461285E2,4.82584E2,8.85E0,2.3468071E2,6E0,1.4832675E3,2E0,-3.0736523E1,-2.5456497E1,4E0,6.2052025E1,3.2411E2,1.0753801E3,1.158414E3,-3.1718755E0,3.4697796E1,1.1247083E3,2.0598284E3,2.6501265E3,1.5392704E3,1.0900647E1,-2.2697523E1,2.4867151E1,-1.759313E1,-1.5820327E1,8.88249E0,-9.43409E0,1.4503071E1,-2.136107E1,-1.0037351E1,2.081343E1,-1.01960125E1,3.2593708E1,-1.4531892E1,-1.3913293E1,1.9853651E1,8.347285E1,1.6353727E1],"split_indices":[2,0,3,3,0,0,2,2,3,0,2,0,4,2,0,0,0,4,3,4,0,0,4,0,0,2,0,0,0,3,3,2,3,0,0,0,0,0,0,0,0,0,0,0,0,0,0,0,0,0,0],"split_type":[0,0,0,0,0,0,0,0,0,0,0,0,0,0,0,0,0,0,0,0,0,0,0,0,0,0,0,0,0,0,0,0,0,0,0,0,0,0,0,0,0,0,0,0,0,0,0,0,0,0,0],"sum_hessian":[8.83E2,4.15E2,4.68E2,4.14E2,1E0,1E0,4.67E2,3.5E1,3.79E2,4E0,4.63E2,2.3E1,1.2E1,9.1E1,2.88E2,3E0,1E0,2.07E2,2.56E2,5E0,1.8E1,4E0,8E0,2E0,8.9E1,1.17E2,1.71E2,1E0,2E0,1.52E2,5.5E1,3.6E1,2.2E2,1E0,4E0,4E0,4E0,3.7E1,5.2E1,8.7E1,3E1,8.1E1,9E1,1.4E1,1.38E2,3.4E1,2.1E1,2.9E1,7E0,3E0,2.17E2],"tree_param":{"num_deleted":"0","num_feature":"6","num_nodes":"51","size_leaf_vector":"1"}},{"base_weights":[-1.494652E1,-1.4337111E2,3.905794E2,-3.4966586E2,-2.2403114E1,2.1102379E2,1.9965312E3,-4.0073422E2,1.6067809E2,3.9134567E2,-9.672199E1,2.325596E3,1.17430336E2,1.0784853E2,1.1174998E3,-3.447584E2,-8.11599E2,4.87789E2,-5.1362854E2,1.7584044E3,-6.302749E1,-3.6451465E2,1.499945E2,3.3663135E2,5.5283267E3,-1.3985352E2,5.4453485E2,2.5656858E3,1.3683818E2,-4.4294406E2,-1.9746616E2,-2.4778185E1,-6.796285E0,9.111809E1,4.9650665E1,-2.4273447E1,-1.5863403E1,4.6189783E2,4.5183394E3,-5.311623E2,1.8158145E3,-5.002057E2,-1.2984053E2,2.2675183E3,9.0996635E1,-5.75425E2,2.8095472E1,1.7614199E1,2.3116049E2,1.1021868E3,-3.2293027E2,9.190689E2,-3.5530804E2,-1.8752876E1,9.986584E1,1.200313E3,-4.9041003E2,-9.639181E0,-2.5829926E1,2.5178951E1,-1.0161559E1,2.1813217E1,-8.170003E0,-3.3247826E0,4.03537E0,-1.4201511E1,7.352421E1,2.3068312E2,-4.7661643E0,8.2175665E0,-2.6579395E1,8.930625E1,-2.0099865E1,-9.932181E0,-2.2160786E1,3.1625572E1,-1.1058798E1,1.5881707E1,1.3830045E2,4.2392345E1,9.01159E-1,-2.1917175E1,-3.97695E0,4.9687185E0,7.4382805E1,-4.502695E0,-2.707677E1,6.718926E1,1.4335793E1,-2.417673E1,3.7432068E1,-3.385358E0,5.026943E1,-2.0955105E1,-4.7914214E0],"categories":[],"categories_nodes":[],"categories_segments":[],"categories_sizes":[],"default_left":[0,0,0,0,0,0,0,0,0,0,0,0,0,0,0,0,0,0,0,0,0,0,0,0,0,0,0,0,0,0,0,0,0,0,0,0,0,0,0,0,0,0,0,0,0,0,0,0,0,0,0,0,0,0,0,0,0,0,0,0,0,0,0,0,0,0,0,0,0,0,0,0,0,0,0,0,0,0,0,0,0,0,0,0,0,0,0,0,0,0,0,0,0,0,0],"id":14,"left_children":[1,3,5,7,9,11,13,15,17,19,21,23,25,-1,27,29,31,33,35,37,39,41,43,45,47,49,51,53,55,57,59,-1,-1,61,-1,-1,63,65,67,69,71,73,75,77,79,81,-1,-1,-1,83,85,87,89,-1,-1,91,93,-1,-1,-1,-1,-1,-1,-1,-1,-1,-1,-1,-1,-1,-1,-1,-1,-1,-1,-1,-1,-1,-1,-1,-1,-1,-1,-1,-1,-1,-1,-1,-1,-1,-1,-1,-1,-1,-1],"loss_changes":[4.546932E7,1.6537372E7,6.013379E7,6.449682E6,1.2921827E7,3.7329824E7,2.5488936E7,4.84886E6,5.3237225E6,3.9864736E7,2.3575192E7,4.9099944E7,2.0185496E7,0E0,2.0951622E7,2.776008E6,3.1032E4,7.257318E6,1.1638272E6,5.516536E7,4.40625E7,5.380236E6,2.3030532E7,3.821665E6,2.7747112E7,2.6505626E7,2.3581054E7,1.6691612E7,7.2592725E6,5.723798E6,1.2146376E7,0E0,0E0,3.2029815E6,0E0,0E0,7.202781E4,2.3482452E7,7.538114E7,1.1668966E7,3.0856256E7,4.111732E6,1.8483256E7,1.79173E7,1.4625198E7,1.0927756E5,0E0,0E0,0E0,1.8937426E7,9.983045E6,2.7479564E7,1.6173924E7,0E0,0E0,2.6858465E6,3.70149E5,0E0,0E0,0E0,0E0,0E0,0E0,0E0,0E0,0E0,0E0,0E0,0E0,0E0,0E0,0E0,0E0,0E0,0E0,0E0,0E0,0E0,0E0,0E0,0E0,0E0,0E0,0E0,0E0,0E0,0E0,0E0,0E0,0E0,0E0,0E0,0E0,0E0,0E0],"parents":[2147483647,0,0,1,1,2,2,3,3,4,4,5,5,6,6,7,7,8,8,9,9,10,10,11,11,12,12,14,14,15,15,16,16,17,17,18,18,19,19,20,20,21,21,22,22,23,23,24,24,25,25,26,26,27,27,28,28,29,29,30,30,33,33,36,36,37,37,38,38,39,39,40,40,41,41,42,42,43,43,44,44,45,45,49,49,50,50,51,51,52,52,55,55,56,56],"right_children":[2,4,6,8,10,12,14,16,18,20,22,24,26,-1,28,30,32,34,36,38,40,42,44,46,48,50,52,54,56,58,60,-1,-1,62,-1,-1,64,66,68,70,72,74,76,78,80,82,-1,-1,-1,84,86,88,90,-1,-1,92,94,-1,-1,-1,-1,-1,-1,-1,-1,-1,-1,-1,-1,-1,-1,-1,-1,-1,-1,-1,-1,-1,-1,-1,-1,-1,-1,-1,-1,-1,-1,-1,-1,-1,-1,-1,-1,-1,-1],"split_conditions":[2.212182E3,1.0295155E3,2.756166E3,1.960012E3,1.47392E2,2.343799E3,3E0,1.511444E3,6.356E2,1.193219E3,9.0756E2,2.0236309E3,1.798397E3,1.0784853E2,1.018092E3,4.53374E2,1.257298E3,1.4346316E3,1.6744883E3,1.160062E3,1.2795E2,1.777319E3,3.136E1,6.49044E2,1.32224E2,1.0835186E3,5.138934E3,1.94322E2,2.9375662E3,1.3855966E3,4.96114E2,-2.4778185E1,-6.796285E0,8.353266E2,4.9650665E1,-2.4273447E1,9.82564E2,6E0,1.4457064E3,3.112E1,1.257298E3,1.403496E3,1.3598834E3,1.312E1,1.0882078E3,5.90762E2,2.8095472E1,1.7614199E1,2.3116049E2,1.0435804E3,1.281848E3,2.5911E3,3.9236096E3,-1.8752876E1,9.986584E1,2.1507368E3,5.185814E3,-9.639181E0,-2.5829926E1,2.5178951E1,-1.0161559E1,2.1813217E1,-8.170003E0,-3.3247826E0,4.03537E0,-1.4201511E1,7.352421E1,2.3068312E2,-4.7661643E0,8.2175665E0,-2.6579395E1,8.930625E1,-2.0099865E1,-9.932181E0,-2.2160786E1,3.1625572E1,-1.1058798E1,1.5881707E1,1.3830045E2,4.2392345E1,9.01159E-1,-2.1917175E1,-3.97695E0,4.9687185E0,7.4382805E1,-4.502695E0,-2.707677E1,6.718926E1,1.4335793E1,-2.417673E1,3.7432068E1,-3.385358E0,5.026943E1,-2.0955105E1,-4.7914214E0],"split_indices":[1,2,3,0,1,1,4,1,1,3,1,3,0,0,0,1,0,3,3,3,1,2,0,0,0,3,1,0,3,3,1,0,0,2,0,0,1,4,2,1,0,2,3,0,2,0,0,0,0,3,0,0,2,0,0,2,1,0,0,0,0,0,0,0,0,0,0,0,0,0,0,0,0,0,0,0,0,0,0,0,0,0,0,0,0,0,0,0,0,0,0,0,0,0,0],"split_type":[0,0,0,0,0,0,0,0,0,0,0,0,0,0,0,0,0,0,0,0,0,0,0,0,0,0,0,0,0,0,0,0,0,0,0,0,0,0,0,0,0,0,0,0,0,0,0,0,0,0,0,0,0,0,0,0,0,0,0,0,0,0,0,0,0,0,0,0,0,0,0,0,0,0,0,0,0,0,0,0,0,0,0,0,0,0,0,0,0,0,0,0,0,0,0],"sum_hessian":[8.71E2,6.62E2,2.09E2,2.44E2,4.18E2,1.89E2,2E1,2.22E2,2.2E1,6.3E1,3.55E2,7E0,1.82E2,6E0,1.4E1,1.97E2,2.5E1,1.5E1,7E0,1.5E1,4.8E1,1.7E2,1.85E2,5E0,2E0,1.14E2,6.8E1,5E0,9E0,1.17E2,8E1,2.4E1,1E0,1.2E1,3E0,4E0,3E0,1.1E1,4E0,3.9E1,9E0,1.07E2,6.3E1,4E0,1.81E2,2E0,3E0,1E0,1E0,1.4E1,1E2,4.8E1,2E1,1E0,4E0,3E0,6E0,9.2E1,2.5E1,9E0,7.1E1,4E0,8E0,2E0,1E0,8E0,3E0,2E0,2E0,1.2E1,2.7E1,6E0,3E0,6.4E1,4.3E1,1E1,5.3E1,3E0,1E0,7E0,1.74E2,1E0,1E0,9E0,5E0,7.8E1,2.2E1,1.1E1,3.7E1,1.6E1,4E0,1E0,2E0,3E0,3E0],"tree_param":{"num_deleted":"0","num_feature":"6","num_nodes":"95","size_leaf_vector":"1"}},{"base_weights":[3.3383865E1,-3.8070355E2,2.1474564E2,-4.0095645E2,4.346127E2,6.874877E3,1.8174706E2,-3.6917374E2,-8.3915454E2,1.3673916E3,-1.8204582E1,-1.6220417E1,3.2558987E2,3.8732403E1,4.6137122E2,-6.811253E2,-3.161809E2,1.1180894E1,-9.381887E2,5.6019207E1,-1.9853119E0,-9.4751205E1,3.2938235E2,2.633805E3,3.72167E2,-2.9459238E1,-9.645921E1,7.224851E2,-3.5498257E2,-3.285361E1,-4.9411597E2,1.2838966E2,-4.0940942E2,2.5120186E3,2.0144928E2,3.8989958E3,-2.323535E1,6.0689136E2,-6.285183E1,-2.2846153E1,5.376552E0,6.100899E1,-1.6050928E0,-1.3218126E1,-6.6039815E0,5.1914062E-2,-1.780894E1,1.3703789E0,8.248331E1,-2.4203547E1,-9.073759E0,9.796203E0,1.2208476E2,5.9812584E1,2.7466922E0,4.0393574E1,1.8008165E2,-1.1778813E1,2.4762316E1,-1.8972845E1,7.813468E0],"categories":[],"categories_nodes":[],"categories_segments":[],"categories_sizes":[],"default_left":[0,0,0,0,0,0,0,0,0,0,0,0,0,0,0,0,0,0,0,0,0,0,0,0,0,0,0,0,0,0,0,0,0,0,0,0,0,0,0,0,0,0,0,0,0,0,0,0,0,0,0,0,0,0,0,0,0,0,0,0,0],"id":15,"left_children":[1,3,5,7,9,11,13,15,17,19,-1,-1,-1,21,23,25,27,-1,29,-1,-1,31,33,35,37,-1,39,41,43,-1,45,47,49,51,53,55,-1,57,59,-1,-1,-1,-1,-1,-1,-1,-1,-1,-1,-1,-1,-1,-1,-1,-1,-1,-1,-1,-1,-1,-1],"loss_changes":[6.6319628E7,4.61612E6,1.33692344E8,3.35304E6,7.6297415E6,9.436794E7,2.4456222E7,3.867848E6,2.38991E6,2.9902245E6,0E0,0E0,0E0,1.5782793E7,3.913437E7,6.061652E6,8.840794E6,0E0,5.73908E5,0E0,0E0,1.9642018E7,3.523557E7,3.7517196E7,2.0460048E7,0E0,2.519999E6,8.2482885E6,2.281498E6,0E0,2.9709325E5,3.5427696E7,4.685938E6,2.2497924E7,2.3846748E7,2.4136728E7,0E0,2.8717892E7,1.3238973E7,0E0,0E0,0E0,0E0,0E0,0E0,0E0,0E0,0E0,0E0,0E0,0E0,0E0,0E0,0E0,0E0,0E0,0E0,0E0,0E0,0E0,0E0],"parents":[2147483647,0,0,1,1,2,2,3,3,4,4,5,5,6,6,7,7,8,8,9,9,13,13,14,14,15,15,16,16,18,18,21,21,22,22,23,23,24,24,26,26,27,27,28,28,30,30,31,31,32,32,33,33,34,34,35,35,37,37,38,38],"right_children":[2,4,6,8,10,12,14,16,18,20,-1,-1,-1,22,24,26,28,-1,30,-1,-1,32,34,36,38,-1,40,42,44,-1,46,48,50,52,54,56,-1,58,60,-1,-1,-1,-1,-1,-1,-1,-1,-1,-1,-1,-1,-1,-1,-1,-1,-1,-1,-1,-1,-1,-1],"split_conditions":[1.0295155E3,2.71959E3,7.052718E2,9.967517E2,3.605685E3,2.12637E3,2.314191E3,8.027413E2,3.3064E1,7.4039514E2,-1.8204582E1,-1.6220417E1,3.2558987E2,1.7682216E3,2.349748E3,5.9955316E2,4.3461285E2,1.1180894E1,1.3855966E3,5.6019207E1,-1.9853119E0,7.8396E2,1.838722E3,2.013993E3,5E0,-2.9459238E1,3E0,1.0130443E3,8.110554E2,-3.285361E1,1.19888E2,7.771E2,8.98824E2,1.798397E3,1.1264825E3,1.7532412E3,-2.323535E1,8.29544E2,6E0,-2.2846153E1,5.376552E0,6.100899E1,-1.6050928E0,-1.3218126E1,-6.6039815E0,5.1914062E-2,-1.780894E1,1.3703789E0,8.248331E1,-2.4203547E1,-9.073759E0,9.796203E0,1.2208476E2,5.9812584E1,2.7466922E0,4.0393574E1,1.8008165E2,-1.1778813E1,2.4762316E1,-1.8972845E1,7.813468E0],"split_indices":[2,0,3,2,0,0,2,3,0,2,0,0,0,0,2,2,2,0,3,0,0,0,0,0,4,0,4,3,2,0,0,0,0,0,2,3,0,0,4,0,0,0,0,0,0,0,0,0,0,0,0,0,0,0,0,0,0,0,0,0,0],"split_type":[0,0,0,0,0,0,0,0,0,0,0,0,0,0,0,0,0,0,0,0,0,0,0,0,0,0,0,0,0,0,0,0,0,0,0,0,0,0,0,0,0,0,0,0,0,0,0,0,0,0,0,0,0,0,0,0,0,0,0,0,0],"sum_hessian":[8.81E2,2.68E2,6.13E2,2.62E2,6E0,2E0,6.11E2,2.46E2,1.6E1,3E0,3E0,1E0,1E0,4.05E2,2.06E2,3.4E1,2.12E2,1E0,1.5E1,2E0,1E0,2.78E2,1.27E2,7E0,1.99E2,2.2E1,1.2E1,7E0,2.05E2,1E1,5E0,1.63E2,1.15E2,6E0,1.21E2,5E0,2E0,1.29E2,7E1,3E0,9E0,2E0,5E0,1.24E2,8.1E1,1E0,4E0,1.59E2,4E0,2.3E1,9.2E1,3E0,3E0,6E0,1.15E2,3E0,2E0,2.3E1,1.06E2,2.5E1,4.5E1],"tree_param":{"num_deleted":"0","num_feature":"6","num_nodes":"61","size_leaf_vector":"1"}},{"base_weights":[4.2394672E1,-2.4176233E2,2.793035E2,-3.0485538E2,4.5385162E2,3.2070602E2,2.3431181E2,-3.4119754E2,1.9577765E2,2.2843062E3,-3.7519966E1,-1.3909227E2,4.0521088E2,-6.0075964E2,-2.7186966E2,6.262177E2,-1.00052783E3,3.5552075E2,1.4212538E2,-2.2504356E2,7.25714E1,-3.67956E2,3.308152E2,-7.87985E1,5.6553955E2,-6.5537305E2,2.5121935E1,6.0349207E2,-3.3757248E2,1.2285098E3,-3.8696217E1,-7.626344E0,-3.2476357E1,7.9399956E1,-8.789317E2,5.489882E1,-4.725423E2,3.8946124E2,-5.3896783E2,7.0765656E2,-8.9008374E2,1.5440754E3,-2.5317949E2,1.8385056E3,4.9696326E2,-1.5245132E1,-2.7122086E1,5.3277345E0,8.4473E1,-8.571767E0,-1.8039886E1,4.569625E1,-2.1356657E1,-1.1413182E1,1.7070852E1,-3.1377216E1,-5.6700788E0,-4.7918363E0,-2.6835289E1,6.169083E1,-1.6141762E1,-8.753054E-1,-1.9863342E1,3.947106E1,7.6170177E0,-2.9356493E1,1.2456445E0,-2.4462739E-1,1.240153E2,-2.5443243E1,-9.6715665E-1,1.4780729E1,1.08723236E2,2.7014893E-1,2.1014202E1],"categories":[],"categories_nodes":[],"categories_segments":[],"categories_sizes":[],"default_left":[0,0,0,0,0,0,0,0,0,0,0,0,0,0,0,0,0,0,0,0,0,0,0,0,0,0,0,0,0,0,0,0,0,0,0,0,0,0,0,0,0,0,0,0,0,0,0,0,0,0,0,0,0,0,0,0,0,0,0,0,0,0,0,0,0,0,0,0,0,0,0,0,0,0,0],"id":16,"left_children":[1,3,5,7,9,-1,11,13,15,17,19,21,23,25,27,29,31,33,-1,35,-1,37,39,41,43,45,-1,47,49,51,53,-1,-1,-1,55,-1,57,59,61,63,65,67,69,71,73,-1,-1,-1,-1,-1,-1,-1,-1,-1,-1,-1,-1,-1,-1,-1,-1,-1,-1,-1,-1,-1,-1,-1,-1,-1,-1,-1,-1,-1,-1],"loss_changes":[5.802944E7,1.7342612E7,2.1764494E8,6.616674E6,2.9767006E7,0E0,2.9985316E7,5.882952E6,1.3499994E7,3.1437684E7,1.2982327E7,1.6038352E7,2.5031952E7,6.046798E6,1.555989E7,7.6565135E6,1.53281E5,1.6467783E7,0E0,1.4088618E7,0E0,1.316264E7,2.3174048E7,2.3313796E7,2.02118E7,2.029964E6,0E0,1.7401928E7,3.23326E6,6.802681E6,2.2933385E6,0E0,0E0,0E0,2.63126E5,0E0,3.025061E6,3.0482018E7,5.12844E6,1.0150306E7,1.029616E6,3.2193028E7,9.69952E6,2.70515E7,2.2933024E7,0E0,0E0,0E0,0E0,0E0,0E0,0E0,0E0,0E0,0E0,0E0,0E0,0E0,0E0,0E0,0E0,0E0,0E0,0E0,0E0,0E0,0E0,0E0,0E0,0E0,0E0,0E0,0E0,0E0,0E0],"parents":[2147483647,0,0,1,1,2,2,3,3,4,4,6,6,7,7,8,8,9,9,10,10,11,11,12,12,13,13,14,14,15,15,16,16,17,17,19,19,21,21,22,22,23,23,24,24,25,25,27,27,28,28,29,29,30,30,34,34,36,36,37,37,38,38,39,39,40,40,41,41,42,42,43,43,44,44],"right_children":[2,4,6,8,10,-1,12,14,16,18,20,22,24,26,28,30,32,34,-1,36,-1,38,40,42,44,46,-1,48,50,52,54,-1,-1,-1,56,-1,58,60,62,64,66,68,70,72,74,-1,-1,-1,-1,-1,-1,-1,-1,-1,-1,-1,-1,-1,-1,-1,-1,-1,-1,-1,-1,-1,-1,-1,-1,-1,-1,-1,-1,-1,-1],"split_conditions":[1.3572976E3,2.471913E3,7.052718E2,2.546643E3,1.7475E2,3.2070602E2,7.98968E2,1.2222E2,9.20946E2,7.788E1,4.916442E3,2.4088672E3,5.90762E2,1.1957589E3,1.6659E2,1.0835186E3,9.46174E2,1.086E1,1.4212538E2,7.4039514E2,7.25714E1,1.4766823E3,3.7989956E3,1.119786E3,1.1112955E3,5E0,2.5121935E1,1.0534556E3,1.501104E3,4.032186E3,3.78594E2,-7.626344E0,-3.2476357E1,7.9399956E1,3.605685E3,5.489882E1,8.37921E2,9.252E1,7.05562E2,2.780118E3,2.9006685E3,1.020532E3,1.873562E3,1.469352E3,1.7357417E3,-1.5245132E1,-2.7122086E1,5.3277345E0,8.4473E1,-8.571767E0,-1.8039886E1,4.569625E1,-2.1356657E1,-1.1413182E1,1.7070852E1,-3.1377216E1,-5.6700788E0,-4.7918363E0,-2.6835289E1,6.169083E1,-1.6141762E1,-8.753054E-1,-1.9863342E1,3.947106E1,7.6170177E0,-2.9356493E1,1.2456445E0,-2.4462739E-1,1.240153E2,-2.5443243E1,-9.6715665E-1,1.4780729E1,1.08723236E2,2.7014893E-1,2.1014202E1],"split_indices":[2,0,3,1,1,0,1,0,0,1,0,2,0,2,0,3,0,1,0,2,0,2,2,1,3,4,0,2,1,1,0,0,0,0,0,0,1,1,0,2,3,1,1,0,3,0,0,0,0,0,0,0,0,0,0,0,0,0,0,0,0,0,0,0,0,0,0,0,0,0,0,0,0,0,0],"split_type":[0,0,0,0,0,0,0,0,0,0,0,0,0,0,0,0,0,0,0,0,0,0,0,0,0,0,0,0,0,0,0,0,0,0,0,0,0,0,0,0,0,0,0,0,0,0,0,0,0,0,0,0,0,0,0,0,0,0,0,0,0,0,0,0,0,0,0,0,0,0,0,0,0,0,0],"sum_hessian":[8.6E2,3.91E2,4.69E2,3.59E2,3.2E1,1E0,4.68E2,3.35E2,2.4E1,6E0,2.6E1,1.47E2,3.21E2,6.9E1,2.66E2,1.8E1,6E0,4E0,2E0,2.5E1,1E0,9.9E1,4.8E1,8E1,2.41E2,6.7E1,2E0,1.8E1,2.48E2,9E0,9E0,1E0,5E0,1E0,3E0,2E0,2.3E1,1.8E1,8.1E1,3.7E1,1.1E1,7E0,7.3E1,1.1E1,2.3E2,4.4E1,2.3E1,1.6E1,2E0,2.09E2,3.9E1,8E0,1E0,6E0,3E0,2E0,1E0,1.4E1,9E0,6E0,1.2E1,1.6E1,6.5E1,1.5E1,2.2E1,1E1,1E0,5E0,2E0,1.9E1,5.4E1,7E0,4E0,6.8E1,1.62E2],"tree_param":{"num_deleted":"0","num_feature":"6","num_nodes":"75","size_leaf_vector":"1"}},{"base_weights":[-2.6620264E0,-2.0911665E2,3.0523755E2,-5.4550854E2,-1.5683952E2,4.836741E3,2.5150212E2,-8.486052E2,-3.0454834E2,4.479039E2,-1.8762996E2,-1.7127304E1,3.1589542E2,1.4331418E2,1.3754858E3,-9.4480646E2,3.3214175E2,5.6836704E1,-4.0951404E2,-1.1236794E2,1.9606901E3,-1.6473007E2,-9.6585675E2,-1.9576885E1,5.427019E2,2.2781111E2,2.0279391E3,-4.6205237E2,-2.9527645E1,-1.7948792E1,3.2895172E1,2.8082787E1,-4.6955878E2,4.789066E2,-5.7415076E2,5.615593E2,1.3434515E2,-2.2482016E2,2.4225941E2,-3.183294E1,1.2269604E0,9.2498804E2,-1.21847084E2,1.569893E3,3.5137656E2,-1.9174982E2,7.264472E1,9.546291E1,1.0895055E3,-1.8454481E1,-4.1422118E-2,-1.7883745E1,5.2832675E0,4.3657696E1,-2.6725848E0,-2.038632E1,5.615826E0,-2.2615137E0,3.0339481E1,-5.328109E0,-2.4174778E1,4.4584667E1,1.6743243E0,1.667977E1,1.3010846E2,2.4190138E1,-5.071908E0,-2.3829159E1,6.8606514E1,3.5853855E1,2.3499649E0,1.4879178E1,-2.5425419E1,8.411158E1,1.3988722E1],"categories":[],"categories_nodes":[],"categories_segments":[],"categories_sizes":[],"default_left":[0,0,0,0,0,0,0,0,0,0,0,0,0,0,0,0,0,0,0,0,0,0,0,0,0,0,0,0,0,0,0,0,0,0,0,0,0,0,0,0,0,0,0,0,0,0,0,0,0,0,0,0,0,0,0,0,0,0,0,0,0,0,0,0,0,0,0,0,0,0,0,0,0,0,0],"id":17,"left_children":[1,3,5,7,9,11,13,15,17,19,21,-1,-1,23,25,27,29,-1,31,33,35,37,39,41,43,45,47,49,-1,-1,-1,-1,51,53,55,57,-1,59,61,-1,-1,63,65,67,69,71,-1,-1,73,-1,-1,-1,-1,-1,-1,-1,-1,-1,-1,-1,-1,-1,-1,-1,-1,-1,-1,-1,-1,-1,-1,-1,-1,-1,-1],"loss_changes":[5.479527E7,8.988616E6,8.303534E7,4.780922E6,8.425941E6,1.2915692E8,4.1512188E7,3.72149E6,1.0009072E7,1.8866892E7,7.45059E6,0E0,0E0,2.0438424E7,2.200214E7,7.8452E4,2.7896045E6,0E0,3.5906185E6,4.9166515E6,1.8618958E7,1.0228175E7,1.194013E6,2.1751296E7,1.7332396E7,1.1508908E7,1.7111992E7,2.8126044E5,0E0,0E0,0E0,0E0,3.210329E6,4.5661205E6,9.29613E5,1.508584E6,0E0,9.815094E6,1.2440882E7,0E0,0E0,2.5286662E7,9.032931E6,2.5548004E7,1.787616E7,5.3811645E6,0E0,0E0,1.1512531E7,0E0,0E0,0E0,0E0,0E0,0E0,0E0,0E0,0E0,0E0,0E0,0E0,0E0,0E0,0E0,0E0,0E0,0E0,0E0,0E0,0E0,0E0,0E0,0E0,0E0,0E0],"parents":[2147483647,0,0,1,1,2,2,3,3,4,4,5,5,6,6,7,7,8,8,9,9,10,10,13,13,14,14,15,15,16,16,18,18,19,19,20,20,21,21,22,22,23,23,24,24,25,25,26,26,27,27,32,32,33,33,34,34,35,35,37,37,38,38,41,41,42,42,43,43,44,44,45,45,48,48],"right_children":[2,4,6,8,10,12,14,16,18,20,22,-1,-1,24,26,28,30,-1,32,34,36,38,40,42,44,46,48,50,-1,-1,-1,-1,52,54,56,58,-1,60,62,-1,-1,64,66,68,70,72,-1,-1,74,-1,-1,-1,-1,-1,-1,-1,-1,-1,-1,-1,-1,-1,-1,-1,-1,-1,-1,-1,-1,-1,-1,-1,-1,-1,-1],"split_conditions":[1.356602E3,6.1929974E2,7.052718E2,9.425578E2,4.668E1,7.43046E2,2.6924458E3,7.38598E2,1.0130443E3,1.027758E3,3.8888967E3,-1.7127304E1,3.1589542E2,1.956197E3,3.406855E3,1.312E1,1.00144E2,5.6836704E1,3.4008957E2,3.33576E2,1.3931036E3,2.4088672E3,2.9006685E3,1.53288E3,2.12637E3,6E0,3E0,3.9587833E2,-2.9527645E1,-1.7948792E1,3.2895172E1,2.8082787E1,7E0,9.396781E2,4.3286E1,2.1072E1,1.3434515E2,4.204968E3,2E0,-3.183294E1,1.2269604E0,1.511444E3,2.599E1,1.1525734E3,1.5392704E3,2.9006685E3,7.264472E1,9.546291E1,2.793316E3,-1.8454481E1,-4.1422118E-2,-1.7883745E1,5.2832675E0,4.3657696E1,-2.6725848E0,-2.038632E1,5.615826E0,-2.2615137E0,3.0339481E1,-5.328109E0,-2.4174778E1,4.4584667E1,1.6743243E0,1.667977E1,1.3010846E2,2.4190138E1,-5.071908E0,-2.3829159E1,6.8606514E1,3.5853855E1,2.3499649E0,1.4879178E1,-2.5425419E1,8.411158E1,1.3988722E1],"split_indices":[1,2,3,3,0,0,3,1,3,1,2,0,0,0,1,1,0,0,2,1,2,2,3,1,0,4,4,3,0,0,0,0,4,2,0,0,0,0,4,0,0,1,0,3,3,3,0,0,3,0,0,0,0,0,0,0,0,0,0,0,0,0,0,0,0,0,0,0,0,0,0,0,0,0,0],"split_type":[0,0,0,0,0,0,0,0,0,0,0,0,0,0,0,0,0,0,0,0,0,0,0,0,0,0,0,0,0,0,0,0,0,0,0,0,0,0,0,0,0,0,0,0,0,0,0,0,0,0,0,0,0,0,0,0,0,0,0,0,0,0,0,0,0,0,0,0,0,0,0,0,0,0,0],"sum_hessian":[8.6E2,5.15E2,3.45E2,6.8E1,4.47E2,3E0,3.42E2,2.9E1,3.9E1,2.1E1,4.26E2,2E0,1E0,3.13E2,2.9E1,2.7E1,2E0,1E0,3.8E1,1.6E1,5E0,4.15E2,1.1E1,2.23E2,9E1,1.1E1,1.8E1,3E0,2.4E1,1E0,1E0,1E0,3.7E1,7E0,9E0,4E0,1E0,3.62E2,5.3E1,1E1,1E0,2.1E1,2.02E2,1.3E1,7.7E1,1E1,1E0,7E0,1.1E1,2E0,1E0,3.1E1,6E0,2E0,5E0,8E0,1E0,2E0,2E0,3.36E2,2.6E1,6E0,4.7E1,2E1,1E0,9E0,1.93E2,3E0,1E1,1.8E1,5.9E1,5E0,5E0,2E0,9E0],"tree_param":{"num_deleted":"0","num_feature":"6","num_nodes":"75","size_leaf_vector":"1"}},{"base_weights":[2.9166914E1,-3.800441E2,2.0506091E2,-4.001599E2,4.2427945E2,6.5641865E3,1.7390997E2,-3.8319998E2,-3.575603E1,1.3231338E3,-1.7419342E1,-1.5768612E1,3.11157E2,2.0032158E1,3.625873E2,-2.5156335E2,-4.5884143E2,5.3907406E1,-1.4730798E0,-1.1463951E2,3.765557E2,9.267131E1,3.2161127E2,-4.342684E2,2.3143355E2,7.2683417E2,-4.782051E2,1.10604065E2,-4.628271E2,1.5427695E2,1.3742726E3,-3.4606018E2,4.607631E2,-1.6154394E1,2.3011992E1,5.5984154E1,2.9035718E0,2.7661545E1,5.045991E0,-1.0599985E0,-1.5513907E1,2.3840021E1,-9.0933865E-1,3.6224883E0,-1.900038E1,-4.053155E0,3.6017864E1,1.6908238E2,1.290879E1,-1.4359261E1,6.1684504E0,8.139777E1,1.2560126E1],"categories":[],"categories_nodes":[],"categories_segments":[],"categories_sizes":[],"default_left":[0,0,0,0,0,0,0,0,0,0,0,0,0,0,0,0,0,0,0,0,0,0,0,0,0,0,0,0,0,0,0,0,0,0,0,0,0,0,0,0,0,0,0,0,0,0,0,0,0,0,0,0,0],"id":18,"left_children":[1,3,5,7,9,11,13,15,-1,17,-1,-1,-1,19,21,23,25,-1,-1,27,29,-1,31,33,35,37,39,41,43,45,47,49,51,-1,-1,-1,-1,-1,-1,-1,-1,-1,-1,-1,-1,-1,-1,-1,-1,-1,-1,-1,-1],"loss_changes":[6.3922212E7,4.489736E6,1.2187405E8,3.0478E6,7.0912345E6,8.643956E7,1.7964326E7,2.443572E6,0E0,2.6887845E6,0E0,0E0,0E0,1.6463827E7,3.006452E7,8.572117E6,4.066936E6,0E0,0E0,1.9579518E7,2.063448E7,0E0,2.5709072E7,9.176543E6,5.76234E6,1.7207662E5,2.739948E6,1.467613E7,9.828542E6,2.3779504E7,6.5966836E7,3.6092365E6,2.0481304E7,0E0,0E0,0E0,0E0,0E0,0E0,0E0,0E0,0E0,0E0,0E0,0E0,0E0,0E0,0E0,0E0,0E0,0E0,0E0,0E0],"parents":[2147483647,0,0,1,1,2,2,3,3,4,4,5,5,6,6,7,7,9,9,13,13,14,14,15,15,16,16,19,19,20,20,22,22,23,23,24,24,25,25,26,26,27,27,28,28,29,29,30,30,31,31,32,32],"right_children":[2,4,6,8,10,12,14,16,-1,18,-1,-1,-1,20,22,24,26,-1,-1,28,30,-1,32,34,36,38,40,42,44,46,48,50,52,-1,-1,-1,-1,-1,-1,-1,-1,-1,-1,-1,-1,-1,-1,-1,-1,-1,-1,-1,-1],"split_conditions":[1.0295155E3,2.71959E3,7.052718E2,2.481424E3,3.605685E3,2.12637E3,1.9978165E3,1.0808643E3,-3.575603E1,7.4039514E2,-1.7419342E1,-1.5768612E1,3.11157E2,6E0,2.0066129E3,9.7109674E2,4.2968915E2,5.3907406E1,-1.4730798E0,4E0,2.157394E3,9.267131E1,1.4832675E3,9.4655615E2,4.3461285E2,1.87432E2,4.3286E1,1.1247083E3,1.235728E3,1.6003076E3,1.1805764E3,2.6501265E3,1.5392704E3,-1.6154394E1,2.3011992E1,5.5984154E1,2.9035718E0,2.7661545E1,5.045991E0,-1.0599985E0,-1.5513907E1,2.3840021E1,-9.0933865E-1,3.6224883E0,-1.900038E1,-4.053155E0,3.6017864E1,1.6908238E2,1.290879E1,-1.4359261E1,6.1684504E0,8.139777E1,1.2560126E1],"split_indices":[2,0,3,0,0,0,2,3,0,2,0,0,0,4,2,3,2,0,0,4,0,0,3,2,2,0,0,3,2,2,3,2,3,0,0,0,0,0,0,0,0,0,0,0,0,0,0,0,0,0,0,0,0],"split_type":[0,0,0,0,0,0,0,0,0,0,0,0,0,0,0,0,0,0,0,0,0,0,0,0,0,0,0,0,0,0,0,0,0,0,0,0,0,0,0,0,0,0,0,0,0,0,0,0,0,0,0,0,0],"sum_hessian":[8.86E2,2.66E2,6.2E2,2.6E2,6E0,2E0,6.18E2,2.56E2,4E0,3E0,3E0,1E0,1E0,3.41E2,2.77E2,9.5E1,1.61E2,2E0,1E0,2.48E2,9.3E1,3E0,2.74E2,6.9E1,2.6E1,2E0,1.59E2,1.51E2,9.7E1,7.7E1,1.6E1,4.7E1,2.27E2,6.4E1,5E0,1E0,2.5E1,1E0,1E0,1.3E1,1.46E2,2.5E1,1.26E2,2.2E1,7.5E1,6.1E1,1.6E1,2E0,1.4E1,3.8E1,9E0,3E0,2.24E2],"tree_param":{"num_deleted":"0","num_feature":"6","num_nodes":"53","size_leaf_vector":"1"}},{"base_weights":[1.3701757E1,-2.003347E2,3.4900604E2,-6.1146375E2,-1.361633E2,4.686827E3,2.9601117E2,-8.214503E2,-4.5562485E2,2.063067E2,-2.3363046E2,-1.6853333E1,3.0648962E2,1.6974272E2,1.0828713E3,-5.036116E2,-9.6222797E2,7.117928E1,-5.971665E2,8.030265E2,-1.4571881E2,-4.7310028E2,1.2571054E1,1.0240142E2,1.393017E3,1.6902157E3,2.79356E2,-1.0203378E2,-6.414491E2,-8.123586E0,-2.956793E1,6.148702E2,-2.6942238E1,-6.741654E2,-1.573999E1,1.8702928E2,4.057173E3,-3.6868518E2,9.8236017E2,-3.167247E1,-5.981034E2,1.0387257E3,-5.5095245E1,7.8572595E2,3.393323E1,1.1172255E2,4.9990952E2,1.3060148E3,1.26012535E2,-7.8058215E2,1.1393582E3,-1.2239698E1,1.223752E1,-2.7133585E1,-9.082687E0,2.9077942E1,3.2027435E0,4.9703007E0,-2.1265152E1,2.0331045E1,-1.0755773E1,-5.1493664E0,5.489021E1,2.2183054E2,1.6199883E1,1.212171E1,-2.2666027E1,6.872883E1,-1.4699021E1,-8.252853E0,2.2513418E1,-1.4234381E1,-2.3318224E1,3.8551605E0,1.0269434E2,-3.2030456E0,4.0477703E1,-2.6470551E0,4.4361362E1,-3.894738E0,1.4296308E1,-1.1691215E1,5.469943E1,5.19442E1,-7.7681937E0,-2.6026531E1,3.2072753E-2,5.8104317E1,8.791862E0],"categories":[],"categories_nodes":[],"categories_segments":[],"categories_sizes":[],"default_left":[0,0,0,0,0,0,0,0,0,0,0,0,0,0,0,0,0,0,0,0,0,0,0,0,0,0,0,0,0,0,0,0,0,0,0,0,0,0,0,0,0,0,0,0,0,0,0,0,0,0,0,0,0,0,0,0,0,0,0,0,0,0,0,0,0,0,0,0,0,0,0,0,0,0,0,0,0,0,0,0,0,0,0,0,0,0,0,0,0],"id":19,"left_children":[1,3,5,7,9,11,13,15,17,19,21,-1,-1,23,25,27,29,31,33,35,37,39,41,43,45,47,49,51,53,-1,-1,55,-1,57,59,61,63,65,67,69,71,73,75,77,79,-1,81,83,-1,85,87,-1,-1,-1,-1,-1,-1,-1,-1,-1,-1,-1,-1,-1,-1,-1,-1,-1,-1,-1,-1,-1,-1,-1,-1,-1,-1,-1,-1,-1,-1,-1,-1,-1,-1,-1,-1,-1,-1],"loss_changes":[6.2076904E7,1.384682E7,7.608299E7,1.949136E6,1.5336047E7,1.2182783E8,3.300097E7,8.13004E5,3.24879E6,2.1543196E7,2.1053892E7,0E0,0E0,2.366427E7,2.1976304E7,5.4342775E5,4.0132E4,5.821945E6,1.511542E6,7.54139E7,1.671122E7,9.968612E6,1.2347416E7,1.2839486E7,2.9366708E7,1.9589168E7,2.0031892E7,7.90517E5,4.38791E5,0E0,0E0,1.157028E6,0E0,9.91034E5,1.4314829E6,1.9756838E7,6.643175E7,1.6746682E7,2.2316076E7,8.0122565E6,2.75432E6,2.3433926E7,1.2262748E7,1.5271552E7,1.8254576E7,0E0,1.4838434E7,1.6428108E7,0E0,6.807215E5,7.530965E6,0E0,0E0,0E0,0E0,0E0,0E0,0E0,0E0,0E0,0E0,0E0,0E0,0E0,0E0,0E0,0E0,0E0,0E0,0E0,0E0,0E0,0E0,0E0,0E0,0E0,0E0,0E0,0E0,0E0,0E0,0E0,0E0,0E0,0E0,0E0,0E0,0E0,0E0],"parents":[2147483647,0,0,1,1,2,2,3,3,4,4,5,5,6,6,7,7,8,8,9,9,10,10,13,13,14,14,15,15,16,16,17,17,18,18,19,19,20,20,21,21,22,22,23,23,24,24,25,25,26,26,27,27,28,28,31,31,33,33,34,34,35,35,36,36,37,37,38,38,39,39,40,40,41,41,42,42,43,43,44,44,46,46,47,47,49,49,50,50],"right_children":[2,4,6,8,10,12,14,16,18,20,22,-1,-1,24,26,28,30,32,34,36,38,40,42,44,46,48,50,52,54,-1,-1,56,-1,58,60,62,64,66,68,70,72,74,76,78,80,-1,82,84,-1,86,88,-1,-1,-1,-1,-1,-1,-1,-1,-1,-1,-1,-1,-1,-1,-1,-1,-1,-1,-1,-1,-1,-1,-1,-1,-1,-1,-1,-1,-1,-1,-1,-1,-1,-1,-1,-1,-1,-1],"split_conditions":[1.356602E3,6.1929974E2,7.052718E2,9.425578E2,1.5182E2,7.43046E2,2.586303E3,4.9616E1,1.1164861E3,1.1989281E3,1.528756E3,-1.6853333E1,3.0648962E2,5.351866E3,2.5911E3,4.0544E1,1.312E1,5.8974115E2,1.058364E3,1.179872E3,1.2795E2,8.724221E2,7.936E1,1.53288E3,2.2163508E3,3.4534883E3,3.406855E3,2.208E1,4.7395938E2,-8.123586E0,-2.956793E1,4.9155E2,-2.6942238E1,4.2968915E2,1.103298E3,1.170062E3,1E0,3.3064E1,6.32188E2,8.1695374E2,7.85552E2,1.027758E3,7.221638E3,1.1664673E3,1.798397E3,1.1172255E2,7.879734E3,3.0722407E3,1.26012535E2,3.26242E3,6.120656E3,-1.2239698E1,1.223752E1,-2.7133585E1,-9.082687E0,2.9077942E1,3.2027435E0,4.9703007E0,-2.1265152E1,2.0331045E1,-1.0755773E1,-5.1493664E0,5.489021E1,2.2183054E2,1.6199883E1,1.212171E1,-2.2666027E1,6.872883E1,-1.4699021E1,-8.252853E0,2.2513418E1,-1.4234381E1,-2.3318224E1,3.8551605E0,1.0269434E2,-3.2030456E0,4.0477703E1,-2.6470551E0,4.4361362E1,-3.894738E0,1.4296308E1,-1.1691215E1,5.469943E1,5.19442E1,-7.7681937E0,-2.6026531E1,3.2072753E-2,5.8104317E1,8.791862E0],"split_indices":[1,2,3,3,1,0,3,0,3,3,3,0,0,0,0,1,1,2,0,3,1,2,0,1,2,3,1,1,3,0,0,1,0,2,0,2,5,1,0,2,1,1,0,3,0,0,0,3,0,1,1,0,0,0,0,0,0,0,0,0,0,0,0,0,0,0,0,0,0,0,0,0,0,0,0,0,0,0,0,0,0,0,0,0,0,0,0,0,0],"split_type":[0,0,0,0,0,0,0,0,0,0,0,0,0,0,0,0,0,0,0,0,0,0,0,0,0,0,0,0,0,0,0,0,0,0,0,0,0,0,0,0,0,0,0,0,0,0,0,0,0,0,0,0,0,0,0,0,0,0,0,0,0,0,0,0,0,0,0,0,0,0,0,0,0,0,0,0,0,0,0,0,0,0,0,0,0,0,0,0,0],"sum_hessian":[8.63E2,5.27E2,3.36E2,7E1,4.57E2,3E0,3.33E2,2.8E1,4.2E1,1.01E2,3.56E2,2E0,1E0,2.88E2,4.5E1,1E1,1.8E1,9E0,3.3E1,3.7E1,6.4E1,1.8E2,1.76E2,2.74E2,1.4E1,2.5E1,2E1,3E0,7E0,1E0,1.7E1,6E0,3E0,2.9E1,4E0,3.2E1,5E0,5.4E1,1E1,4E1,1.4E2,1E1,1.66E2,2.4E1,2.5E2,3E0,1.1E1,2.3E1,2E0,9E0,1.1E1,2E0,1E0,3E0,4E0,3E0,3E0,1E0,2.8E1,1E0,3E0,2.7E1,5E0,2E0,3E0,1.8E1,3.6E1,5E0,5E0,3.1E1,9E0,8.5E1,5.5E1,8E0,2E0,1.61E2,5E0,1.1E1,1.3E1,1.83E2,6.7E1,7E0,4E0,1.8E1,5E0,8E0,1E0,5E0,6E0],"tree_param":{"num_deleted":"0","num_feature":"6","num_nodes":"89","size_leaf_vector":"1"}},{"base_weights":[2.4991507E1,-3.24873E2,1.8006898E2,-7.7118384E2,-2.9234976E2,6.371333E3,1.496244E2,-3.9345126E2,-8.205003E2,-6.840803E1,-4.045754E2,-1.518231E1,3.0189227E2,-6.1406483E1,3.7356488E2,1.2053957E1,-2.3774021E1,-2.6584562E1,-2.62509E2,-1.2609171E2,1.1600514E3,-3.329321E2,-7.585775E2,-3.3327708E0,-6.1880304E2,-3.2591587E1,5.6579944E2,5.031167E0,-1.684407E1,-1.6656494E2,4.8497784E1,-7.9826093E0,5.1723793E1,-2.436352E2,-5.845844E2,-5.6714825E2,-2.8996624E1,-8.111665E1,7.5446326E2,-9.076846E2,4.9728443E1,1.3603907E3,-1.7308878E2,1.2066246E3,4.060506E2,2.7997444E1,-7.021948E0,-1.241226E1,4.1629844E0,-2.6927958E1,-3.5296E0,-1.8915827E1,-8.667966E0,-5.2222443E0,1.7860947E1,4.3217766E1,-2.333582E1,2.0711395E1,-3.0663202E1,-2.2221907E1,1.0198031E1,-8.434004E0,6.684025E1,-2.09002E1,-6.3061476E-1,-9.418293E0,4.974621E1,-2.5826857E1,1.5901144E1],"categories":[],"categories_nodes":[],"categories_segments":[],"categories_sizes":[],"default_left":[0,0,0,0,0,0,0,0,0,0,0,0,0,0,0,0,0,0,0,0,0,0,0,0,0,0,0,0,0,0,0,0,0,0,0,0,0,0,0,0,0,0,0,0,0,0,0,0,0,0,0,0,0,0,0,0,0,0,0,0,0,0,0,0,0,0,0,0,0],"id":20,"left_children":[1,3,5,7,9,11,13,15,17,19,21,-1,-1,23,25,-1,-1,-1,27,29,31,33,35,37,39,41,43,-1,-1,45,-1,-1,-1,47,49,51,-1,53,55,57,59,61,63,65,67,-1,-1,-1,-1,-1,-1,-1,-1,-1,-1,-1,-1,-1,-1,-1,-1,-1,-1,-1,-1,-1,-1,-1,-1],"loss_changes":[4.840069E7,3.751784E6,1.1553377E8,1.2485E4,6.43125E6,8.126159E7,2.9134086E7,1.5876825E6,3.16874E5,6.311272E6,4.084324E6,0E0,0E0,1.0291626E7,2.3363556E7,0E0,0E0,0E0,4.8001238E5,6.19396E6,3.6765645E6,3.09351E6,5.6658E5,1.7096108E7,5.83893E6,1.9219348E7,2.0291376E7,0E0,0E0,6.380144E6,0E0,0E0,0E0,7.0827115E6,5.302167E6,1.17584E5,0E0,1.6642259E7,2.950762E7,4.545576E6,2.5457578E6,1.3444306E7,7.071589E6,2.798704E7,2.6218336E7,0E0,0E0,0E0,0E0,0E0,0E0,0E0,0E0,0E0,0E0,0E0,0E0,0E0,0E0,0E0,0E0,0E0,0E0,0E0,0E0,0E0,0E0,0E0,0E0],"parents":[2147483647,0,0,1,1,2,2,3,3,4,4,5,5,6,6,7,7,8,8,9,9,10,10,13,13,14,14,18,18,19,19,20,20,21,21,22,22,23,23,24,24,25,25,26,26,29,29,33,33,34,34,35,35,37,37,38,38,39,39,40,40,41,41,42,42,43,43,44,44],"right_children":[2,4,6,8,10,12,14,16,18,20,22,-1,-1,24,26,-1,-1,-1,28,30,32,34,36,38,40,42,44,-1,-1,46,-1,-1,-1,48,50,52,-1,54,56,58,60,62,64,66,68,-1,-1,-1,-1,-1,-1,-1,-1,-1,-1,-1,-1,-1,-1,-1,-1,-1,-1,-1,-1,-1,-1,-1,-1],"split_conditions":[1.0481503E3,3.995177E2,7.052718E2,2E0,1.0835186E3,2.12637E3,1.369476E3,4.0544E1,4.30438E2,1.02388184E3,1.511444E3,-1.518231E1,3.0189227E2,2.6924458E3,6.32188E2,1.2053957E1,-2.3774021E1,-2.6584562E1,1.6776E1,2.679652E3,1.7997E2,9.396781E2,1.9929858E3,2.4713608E3,3.503813E3,1.1107888E3,1.06922E3,5.031167E0,-1.684407E1,2.1072E1,4.8497784E1,-7.9826093E0,5.1723793E1,8.110554E2,1.2792358E3,1.873562E3,-2.8996624E1,2.666674E3,2.817204E3,1.1989163E3,8.2297E2,7.265E1,1.873562E3,1.3684982E3,1.31197E3,2.7997444E1,-7.021948E0,-1.241226E1,4.1629844E0,-2.6927958E1,-3.5296E0,-1.8915827E1,-8.667966E0,-5.2222443E0,1.7860947E1,4.3217766E1,-2.333582E1,2.0711395E1,-3.0663202E1,-2.2221907E1,1.0198031E1,-8.434004E0,6.684025E1,-2.09002E1,-6.3061476E-1,-9.418293E0,4.974621E1,-2.5826857E1,1.5901144E1],"split_indices":[2,2,3,4,3,0,1,1,1,2,1,0,0,3,0,0,0,0,0,0,0,2,1,3,2,2,0,0,0,0,0,0,0,2,3,1,0,2,2,2,0,0,1,2,0,0,0,0,0,0,0,0,0,0,0,0,0,0,0,0,0,0,0,0,0,0,0,0,0],"split_type":[0,0,0,0,0,0,0,0,0,0,0,0,0,0,0,0,0,0,0,0,0,0,0,0,0,0,0,0,0,0,0,0,0,0,0,0,0,0,0,0,0,0,0,0,0,0,0,0,0,0,0,0,0,0,0,0,0,0,0,0,0,0,0,0,0,0,0,0,0],"sum_hessian":[8.9E2,2.73E2,6.17E2,1.7E1,2.56E2,2E0,6.15E2,3E0,1.4E1,8.6E1,1.7E2,1E0,1E0,3.17E2,2.98E2,1E0,2E0,1.2E1,2E0,8.3E1,3E0,1.43E2,2.7E1,2.88E2,2.9E1,9.6E1,2.02E2,1E0,1E0,8.2E1,1E0,1E0,2E0,1.07E2,3.6E1,1.6E1,1.1E1,2.62E2,2.6E1,2E1,9E0,8E0,8.8E1,3.9E1,1.63E2,4E0,7.8E1,7.4E1,3.3E1,2.1E1,1.5E1,1.2E1,4E0,2.31E2,3.1E1,1.8E1,8E0,1E0,1.9E1,2E0,7E0,3E0,5E0,1.9E1,6.9E1,9E0,3E1,1.4E1,1.49E2],"tree_param":{"num_deleted":"0","num_feature":"6","num_nodes":"69","size_leaf_vector":"1"}},{"base_weights":[3.515231E1,-2.1163954E2,2.4505893E2,-2.9608774E2,-4.967625E1,2.9736392E2,2.0383955E2,-3.1306845E2,4.9192096E2,3.2089236E2,-2.7229514E2,1.3711357E3,1.7062424E2,-2.9536404E2,-3.4813835E1,5.2582962E1,-1.730078E1,6.318781E1,1.2991108E3,1.1307938E2,-6.2661707E2,3.680603E0,5.928093E3,-1.1834371E1,3.9831207E2,-3.3240292E2,1.8609169E2,3.0458664E2,-7.6388696E2,1.5851243E3,-2.3415337E1,-2.4572557E2,1.0604692E3,4.494766E2,-7.3980396E2,7.831989E2,-5.53644E2,2.2554259E2,4.1221573E1,-1.09868164E2,4.8088968E2,2.5131082E3,3.1129358E2,-7.7455807E0,-1.4383424E1,7.219267E-1,2.363036E1,2.6586952E1,-7.8499894E0,-3.1806292E1,-1.6305112E0,7.089579E1,2.7422012E1,-1.3303966E1,2.7322895E1,1.25610176E2,4.938415E-1,-2.3206266E1,4.5680096E1,-2.3131746E1,8.124312E0,4.262995E1,8.054983E0,-2.448683E1,2.0563025E0,2.7270674E1,-5.8777356E0,2.4012318E1,-2.4453712E1,1.1154379E2,-2.2038935E1,-4.4496393E0,1.3281654E1],"categories":[],"categories_nodes":[],"categories_segments":[],"categories_sizes":[],"default_left":[0,0,0,0,0,0,0,0,0,0,0,0,0,0,0,0,0,0,0,0,0,0,0,0,0,0,0,0,0,0,0,0,0,0,0,0,0,0,0,0,0,0,0,0,0,0,0,0,0,0,0,0,0,0,0,0,0,0,0,0,0,0,0,0,0,0,0,0,0,0,0,0,0],"id":21,"left_children":[1,3,5,7,9,-1,11,13,15,17,19,21,23,25,-1,-1,-1,27,29,31,33,35,37,39,41,43,45,47,49,51,-1,53,55,57,59,61,63,-1,-1,65,67,69,71,-1,-1,-1,-1,-1,-1,-1,-1,-1,-1,-1,-1,-1,-1,-1,-1,-1,-1,-1,-1,-1,-1,-1,-1,-1,-1,-1,-1,-1,-1],"loss_changes":[4.5638716E7,5.524684E6,1.8765154E8,3.713336E6,1.1636757E7,0E0,1.8182804E7,3.572916E6,9.09494E6,1.3278755E7,1.208696E7,8.098683E7,1.9239402E7,4.64483E6,0E0,0E0,0E0,8.81783E6,7.780004E6,1.4877496E7,5.935314E6,5.2125055E6,1.139244E7,1.2515166E7,3.712712E7,2.484466E6,1.8330438E6,1.1430078E7,2.044896E6,3.061168E6,0E0,7.72178E6,3.9100624E7,7.740528E6,1.53542E6,1.2598382E6,1.1995808E6,0E0,0E0,1.9117416E7,1.845888E7,3.4040132E7,1.2086534E7,0E0,0E0,0E0,0E0,0E0,0E0,0E0,0E0,0E0,0E0,0E0,0E0,0E0,0E0,0E0,0E0,0E0,0E0,0E0,0E0,0E0,0E0,0E0,0E0,0E0,0E0,0E0,0E0,0E0,0E0],"parents":[2147483647,0,0,1,1,2,2,3,3,4,4,6,6,7,7,8,8,9,9,10,10,11,11,12,12,13,13,17,17,18,18,19,19,20,20,21,21,22,22,23,23,24,24,25,25,26,26,27,27,28,28,29,29,31,31,32,32,33,33,34,34,35,35,36,36,39,39,40,40,41,41,42,42],"right_children":[2,4,6,8,10,-1,12,14,16,18,20,22,24,26,-1,-1,-1,28,30,32,34,36,38,40,42,44,46,48,50,52,-1,54,56,58,60,62,64,-1,-1,66,68,70,72,-1,-1,-1,-1,-1,-1,-1,-1,-1,-1,-1,-1,-1,-1,-1,-1,-1,-1,-1,-1,-1,-1,-1,-1,-1,-1,-1,-1,-1,-1],"split_conditions":[1.3572976E3,1.0295155E3,7.052718E2,2.71959E3,7.10804E2,2.9736392E2,1.3931036E3,2.5911E3,3.605685E3,2.0398119E3,1.2527263E3,1.9936831E3,2.314191E3,1.970978E3,-3.4813835E1,5.2582962E1,-1.730078E1,6E0,1.316299E3,2.5911E3,1.0692661E3,1.59002E2,7.8396E2,7E0,2.349748E3,1.328761E3,1.6744883E3,1.1874835E3,2.55968E2,2.0912866E3,-2.3415337E1,1.2096099E3,1.103962E3,1.2774132E3,3.0005032E3,1.3684982E3,1.079962E3,2.2554259E2,4.1221573E1,1.1247083E3,2.0066129E3,2.013993E3,8.2297E2,-7.7455807E0,-1.4383424E1,7.219267E-1,2.363036E1,2.6586952E1,-7.8499894E0,-3.1806292E1,-1.6305112E0,7.089579E1,2.7422012E1,-1.3303966E1,2.7322895E1,1.25610176E2,4.938415E-1,-2.3206266E1,4.5680096E1,-2.3131746E1,8.124312E0,4.262995E1,8.054983E0,-2.448683E1,2.0563025E0,2.7270674E1,-5.8777356E0,2.4012318E1,-2.4453712E1,1.1154379E2,-2.2038935E1,-4.4496393E0,1.3281654E1],"split_indices":[2,2,3,0,0,0,2,0,0,3,3,3,2,0,0,0,0,4,2,0,2,0,0,4,2,3,3,3,0,3,0,3,2,3,3,2,0,0,0,3,2,0,0,0,0,0,0,0,0,0,0,0,0,0,0,0,0,0,0,0,0,0,0,0,0,0,0,0,0,0,0,0,0],"split_type":[0,0,0,0,0,0,0,0,0,0,0,0,0,0,0,0,0,0,0,0,0,0,0,0,0,0,0,0,0,0,0,0,0,0,0,0,0,0,0,0,0,0,0,0,0,0,0,0,0,0,0,0,0,0,0,0,0,0,0,0,0,0,0,0,0,0,0,0,0,0,0,0,0],"sum_hessian":[8.79E2,4.04E2,4.75E2,2.65E2,1.39E2,1E0,4.74E2,2.6E2,5E0,5.2E1,8.7E1,1.2E1,4.62E2,2.56E2,4E0,2E0,3E0,4.2E1,1E1,4.2E1,4.5E1,1E1,2E0,2.57E2,2.05E2,2.38E2,1.8E1,3.3E1,9E0,9E0,1E0,3.1E1,1.1E1,4E0,4.1E1,4E0,6E0,1E0,1E0,2.15E2,4.2E1,7E0,1.98E2,1.6E2,7.8E1,1.5E1,3E0,1.6E1,1.7E1,6E0,3E0,3E0,6E0,2.7E1,4E0,2E0,9E0,2E0,2E0,4E1,1E0,1E0,3E0,4E0,2E0,1.6E1,1.99E2,3.4E1,8E0,5E0,2E0,4.4E1,1.54E2],"tree_param":{"num_deleted":"0","num_feature":"6","num_nodes":"73","size_leaf_vector":"1"}},{"base_weights":[3.0865322E1,-1.4165105E2,2.888147E2,1.484071E2,-2.2889224E2,4.4786567E3,2.3982567E2,-2.4842272E1,2.9303625E2,-4.5373364E2,-1.0396484E2,-1.6122694E1,2.9290344E2,-3.5404705E1,5.1211285E2,7.792474E2,-2.0810774E1,-5.325549E2,-2.0247673E2,-2.8306827E2,7.869374E1,-2.1543916E2,5.5386414E2,9.5762256E2,2.4015144E2,2.073731E2,3.6089941E3,-3.253166E2,1.5312926E3,-6.904339E2,-3.7080447E2,-6.0886383E2,4.0705618E2,4.2603046E1,-5.3889984E2,1.5525093E3,-5.140154E0,-9.196111E1,-8.073567E2,8.545177E1,3.631603E2,6.5554224E2,2.79796E3,2.3525325E3,9.56628E1,-9.717781E-1,2.790808E1,2.179712E1,2.1630106E2,6.596797E0,-1.9761755E1,7.270009E1,-1.9068552E1,-1.0478309E1,-2.6425247E1,9.532288E0,-1.759078E1,6.4821424E0,-2.5926058E1,5.471295E1,-2.9730446E0,-6.3410783E0,1.2653592E1,1.6486719E0,-1.9990805E1,1.2996744E2,1.1015345E1,-2.1944892E0,4.0337143E1,-1.1448299E1,7.4876337E0,-2.9642408E1,-7.5935884E0,2.9096603E1,-1.4372019E1,4.233464E1,1.2103915E0,-6.6823845E0,9.610174E1,-1.8060804E1,8.83589E1,-2.5812662E0,1.7056696E1],"categories":[],"categories_nodes":[],"categories_segments":[],"categories_sizes":[],"default_left":[0,0,0,0,0,0,0,0,0,0,0,0,0,0,0,0,0,0,0,0,0,0,0,0,0,0,0,0,0,0,0,0,0,0,0,0,0,0,0,0,0,0,0,0,0,0,0,0,0,0,0,0,0,0,0,0,0,0,0,0,0,0,0,0,0,0,0,0,0,0,0,0,0,0,0,0,0,0,0,0,0,0,0],"id":22,"left_children":[1,3,5,7,9,11,13,-1,15,17,19,-1,-1,21,23,25,27,29,31,33,35,37,39,41,43,45,47,49,51,53,55,57,59,61,63,65,67,69,71,-1,73,75,77,79,81,-1,-1,-1,-1,-1,-1,-1,-1,-1,-1,-1,-1,-1,-1,-1,-1,-1,-1,-1,-1,-1,-1,-1,-1,-1,-1,-1,-1,-1,-1,-1,-1,-1,-1,-1,-1,-1,-1],"loss_changes":[3.897884E7,1.3319104E7,7.097086E7,1.7472456E7,1.1300724E7,1.1128284E8,2.6097842E7,0E0,1.634398E7,2.744002E6,8.560832E6,0E0,0E0,1.8578756E7,2.0973284E7,6.721849E7,3.1691374E7,2.527518E6,9.165269E6,1.1020804E7,1.607022E7,9.719656E6,1.6906164E7,3.485718E7,3.3348604E7,6.2698605E6,6.741947E7,1.0324396E7,2.2803096E7,3.20012E6,8.497818E6,4.820752E6,1.0936909E7,5.7709755E6,5.637906E6,2.1473672E7,1.1480711E7,1.1175323E7,2.053663E6,0E0,2.0393708E7,2.6904344E7,1.1735744E7,1.4032652E7,8.985345E6,0E0,0E0,0E0,0E0,0E0,0E0,0E0,0E0,0E0,0E0,0E0,0E0,0E0,0E0,0E0,0E0,0E0,0E0,0E0,0E0,0E0,0E0,0E0,0E0,0E0,0E0,0E0,0E0,0E0,0E0,0E0,0E0,0E0,0E0,0E0,0E0,0E0,0E0],"parents":[2147483647,0,0,1,1,2,2,3,3,4,4,5,5,6,6,8,8,9,9,10,10,13,13,14,14,15,15,16,16,17,17,18,18,19,19,20,20,21,21,22,22,23,23,24,24,25,25,26,26,27,27,28,28,29,29,30,30,31,31,32,32,33,33,34,34,35,35,36,